{"learner":{"attributes":{"scikit_learn":"{\"_estimator_type\": \"regressor\"}"},"feature_names":["Year","Month","Day","Dayofweek","Dayofyear","Is_month_start","Is_month_end","Is_quarter_start","Is_quarter_end","Is_year_start","Is_year_end","Month1_Amount","Month2_Amount","Month3_Amount"],"feature_types":["int","int","int","int","int","int","int","int","int","int","int","float","float","float"],"gradient_booster":{"model":{"gbtree_model_param":{"num_parallel_tree":"1","num_trees":"100"},"iteration_indptr":[0,1,2,3,4,5,6,7,8,9,10,11,12,13,14,15,16,17,18,19,20,21,22,23,24,25,26,27,28,29,30,31,32,33,34,35,36,37,38,39,40,41,42,43,44,45,46,47,48,49,50,51,52,53,54,55,56,57,58,59,60,61,62,63,64,65,66,67,68,69,70,71,72,73,74,75,76,77,78,79,80,81,82,83,84,85,86,87,88,89,90,91,92,93,94,95,96,97,98,99,100],"tree_info":[0,0,0,0,0,0,0,0,0,0,0,0,0,0,0,0,0,0,0,0,0,0,0,0,0,0,0,0,0,0,0,0,0,0,0,0,0,0,0,0,0,0,0,0,0,0,0,0,0,0,0,0,0,0,0,0,0,0,0,0,0,0,0,0,0,0,0,0,0,0,0,0,0,0,0,0,0,0,0,0,0,0,0,0,0,0,0,0,0,0,0,0,0,0,0,0,0,0,0,0],"trees":[{"base_weights":[2.7126736E-5,-1.16721634E2,1.2505892E3,-3.398837E2,4.0259625E2,4.1923544E2,5.541244E1,3.3413196E2,-4.4937857E2,1.2816595E3,-6.2097664E1,5.9800903E2,-5.289567E2,1.7783334E2,4.729299E2,-3.8875595E2,4.4490207E2,4.1835452E2,-2.6872632E2,-8.9174536E2,-2.0163719E2,3.98946E2,-7.437313E2,5.2719376E1,-3.6481384E2,-1.1079804E2,2.4389618E2,-1.5327396E2,2.2624174E2,1.8804387E2,-2.89698E2],"categories":[],"categories_nodes":[],"categories_segments":[],"categories_sizes":[],"default_left":[0,0,0,0,0,0,0,0,0,0,0,0,0,0,0,0,0,0,0,0,0,0,0,0,0,0,0,0,0,0,0],"id":0,"left_children":[1,3,5,7,9,-1,-1,-1,11,13,15,17,19,-1,-1,21,-1,-1,-1,23,25,27,29,-1,-1,-1,-1,-1,-1,-1,-1],"loss_changes":[1.1969609E7,8.82874E6,8.37643E5,8.936409E6,9.474981E6,0E0,0E0,0E0,4.483778E6,6.90038E5,8.652066E6,6.008309E6,5.401338E6,0E0,0E0,4.211316E6,0E0,0E0,0E0,7.829734E6,4.7239485E6,2.0011779E6,3.646918E6,0E0,0E0,0E0,0E0,0E0,0E0,0E0,0E0],"parents":[2147483647,0,0,1,1,2,2,3,3,4,4,8,8,9,9,10,10,11,11,12,12,15,15,19,19,20,20,21,21,22,22],"right_children":[2,4,6,8,10,-1,-1,-1,12,14,16,18,20,-1,-1,22,-1,-1,-1,24,26,28,30,-1,-1,-1,-1,-1,-1,-1,-1],"split_conditions":[9.689717E2,6.964824E2,4E0,9.6803955E1,2.4606319E2,4.1923544E2,5.541244E1,3.3413196E2,4E0,3.8913467E2,2.6E1,6E0,4.1485687E2,1.7783334E2,4.729299E2,1E1,4.4490207E2,4.1835452E2,-2.6872632E2,5.8356358E1,6E0,6E0,7.1033685E2,5.2719376E1,-3.6481384E2,-1.1079804E2,2.4389618E2,-1.5327396E2,2.2624174E2,1.8804387E2,-2.89698E2],"split_indices":[11,12,1,13,11,0,0,0,2,13,2,3,11,0,0,2,0,0,0,11,3,4,12,0,0,0,0,0,0,0,0],"split_type":[0,0,0,0,0,0,0,0,0,0,0,0,0,0,0,0,0,0,0,0,0,0,0,0,0,0,0,0,0,0,0],"sum_hessian":[8E1,7.4E1,6E0,5.2E1,2.2E1,5E0,1E0,3E0,4.9E1,7E0,1.5E1,3E0,4.6E1,3E0,4E0,1.3E1,2E0,2E0,1E0,2.1E1,2.5E1,4E0,9E0,5E0,1.6E1,2.2E1,3E0,1E0,3E0,1E0,8E0],"tree_param":{"num_deleted":"0","num_feature":"14","num_nodes":"31","size_leaf_vector":"1"}},{"base_weights":[2.2794973E1,5.354143E2,-1.4293376E2,-1.8766885E2,1.0331089E3,3.452755E2,-3.5050293E2,-4.356426E2,1.3604785E2,4.74243E2,4.0936493E2,-3.4417645E2,6.899592E2,-1.0767461E3,-7.579317E1,-9.2515915E1,-2.5869186E2,2.2660269E2,-1.3968802E2,-5.485532E2,1.11177E2,8.853684E1,3.1643436E2,-8.389205E1,-3.8007834E2,2.969295E2,-5.4285565E2,2.2545795E1,-1.1447853E2,-4.0234188E1,-6.186346E2,8.609275E1,-3.60631E1,-3.4056912E2,1.8934976E2,2.8516956E1,-6.626838E1,6.387864E2,-7.880271E2,-1.1247686E3,1.0691412E2,-4.345234E1,-2.1848561E2,-2.6072668E2,3.7590126E1,-2.1729549E2,2.712635E2,-3.0352194E2,-9.049159E1,-1.0699993E2,-3.9640747E2,-2.4096373E2,1.0550305E2],"categories":[],"categories_nodes":[],"categories_segments":[],"categories_sizes":[],"default_left":[0,0,0,0,0,0,0,0,0,0,0,0,0,0,0,0,0,0,0,0,0,0,0,0,0,0,0,0,0,0,0,0,0,0,0,0,0,0,0,0,0,0,0,0,0,0,0,0,0,0,0,0,0],"id":1,"left_children":[1,3,5,7,9,11,13,15,-1,17,-1,19,21,23,25,27,-1,-1,-1,29,31,33,-1,35,-1,37,39,-1,-1,-1,41,-1,-1,43,-1,-1,-1,45,47,49,51,-1,-1,-1,-1,-1,-1,-1,-1,-1,-1,-1,-1],"loss_changes":[6.9579445E6,7.3913735E6,6.403926E6,1.6284821E6,1.575643E6,4.752682E6,8.696658E6,9.450205E5,0E0,1.9368876E6,0E0,7.124322E5,2.7589705E6,2.159586E6,5.905988E6,2.7102534E5,0E0,0E0,0E0,6.2254875E4,1.5653031E5,1.6120276E6,0E0,9.45467E4,0E0,7.5504785E6,5.7918945E6,0E0,0E0,0E0,1.023215E5,0E0,0E0,1.0937822E6,0E0,0E0,0E0,6.081972E6,2.3887625E5,7.36723E5,2.0645915E6,0E0,0E0,0E0,0E0,0E0,0E0,0E0,0E0,0E0,0E0,0E0,0E0],"parents":[2147483647,0,0,1,1,2,2,3,3,4,4,5,5,6,6,7,7,9,9,11,11,12,12,13,13,14,14,15,15,19,19,20,20,21,21,23,23,25,25,26,26,30,30,33,33,37,37,38,38,39,39,40,40],"right_children":[2,4,6,8,10,12,14,16,-1,18,-1,20,22,24,26,28,-1,-1,-1,30,32,34,-1,36,-1,38,40,-1,-1,-1,42,-1,-1,44,-1,-1,-1,46,48,50,52,-1,-1,-1,-1,-1,-1,-1,-1,-1,-1,-1,-1],"split_conditions":[2E0,4.8E1,3E1,8.286569E2,1E0,3.790569E2,5E1,3.4851938E2,1.3604785E2,4E0,4.0936493E2,5.7575116E2,4E0,6E0,2E1,1.3E1,-2.5869186E2,2.2660269E2,-1.3968802E2,3E0,1.1E1,6.387618E2,3.1643436E2,5E0,-3.8007834E2,9.5E1,2.6E1,2.2545795E1,-1.1447853E2,-4.0234188E1,4.012595E2,8.609275E1,-3.60631E1,1.5E1,1.8934976E2,2.8516956E1,-6.626838E1,4.8690296E1,4.706209E2,3.4339172E2,3.0235258E1,-4.345234E1,-2.1848561E2,-2.6072668E2,3.7590126E1,-2.1729549E2,2.712635E2,-3.0352194E2,-9.049159E1,-1.0699993E2,-3.9640747E2,-2.4096373E2,1.0550305E2],"split_indices":[3,4,4,11,3,12,4,11,0,1,0,11,3,2,2,2,0,0,0,3,2,11,0,2,0,4,2,0,0,0,11,0,0,2,0,0,0,12,13,13,12,0,0,0,0,0,0,0,0,0,0,0,0],"split_type":[0,0,0,0,0,0,0,0,0,0,0,0,0,0,0,0,0,0,0,0,0,0,0,0,0,0,0,0,0,0,0,0,0,0,0,0,0,0,0,0,0,0,0,0,0,0,0,0,0,0,0,0,0],"sum_hessian":[8E1,1.9E1,6.1E1,8E0,1.1E1,1.8E1,4.3E1,6E0,2E0,5E0,6E0,6E0,1.2E1,1.1E1,3.2E1,4E0,2E0,4E0,1E0,4E0,2E0,5E0,7E0,2E0,9E0,1.8E1,1.4E1,3E0,1E0,1E0,3E0,1E0,1E0,3E0,2E0,1E0,1E0,1.4E1,4E0,7E0,7E0,1E0,2E0,1E0,2E0,2E0,1.2E1,2E0,2E0,2E0,5E0,1E0,6E0],"tree_param":{"num_deleted":"0","num_feature":"14","num_nodes":"53","size_leaf_vector":"1"}},{"base_weights":[2.5671568E0,-8.812544E2,5.9924828E1,-3.2393423E2,-1.3072376E1,-1.2086232E2,3.179337E2,1.537243E2,-4.021326E2,3.1371252E2,3.177095E1,-4.2478522E2,4.1692148E2,2.2128955E2,-6.3518097E2,6.647836E2,-2.161657E2,-2.769439E2,-2.1895116E2,8.644562E1,7.779011E2,-1.8356961E2,4.6213736E2,-2.2870782E2,-7.8548584E2,-1.1873482E2,9.075085E2,-3.9601804E2,5.1232196E2,-1.333265E2,2.8350122E1,-8.6936226E1,1.5619084E2,5.9212723E1,2.4979105E2,2.4225832E1,1.8979245E2,4.218449E1,-1.9347069E2,7.1564946E0,-2.583693E2,-2.9520302E1,3.385112E2,1.4613004E2,-1.9721678E2,5.6829716E1,2.2214862E2],"categories":[],"categories_nodes":[],"categories_segments":[],"categories_sizes":[],"default_left":[0,0,0,0,0,0,0,0,0,0,0,0,0,0,0,0,0,0,0,0,0,0,0,0,0,0,0,0,0,0,0,0,0,0,0,0,0,0,0,0,0,0,0,0,0,0,0],"id":2,"left_children":[1,3,5,-1,-1,7,9,11,13,-1,15,17,19,21,23,25,27,29,-1,31,33,-1,35,37,39,-1,41,43,45,-1,-1,-1,-1,-1,-1,-1,-1,-1,-1,-1,-1,-1,-1,-1,-1,-1,-1],"loss_changes":[4.1590185E6,7.844565E5,3.6300672E6,0E0,0E0,3.6145382E6,6.631161E6,3.831391E6,3.4821718E6,0E0,3.9104322E6,1.5867025E5,1.96077E6,1.6874821E6,8.589665E5,2.1611568E6,2.5612525E6,4.7745888E5,0E0,1.7844419E6,8.98615E4,0E0,3.3907838E5,1.0129434E6,7.561875E5,0E0,1.4440365E6,3.7825392E6,1.544255E5,0E0,0E0,0E0,0E0,0E0,0E0,0E0,0E0,0E0,0E0,0E0,0E0,0E0,0E0,0E0,0E0,0E0,0E0],"parents":[2147483647,0,0,1,1,2,2,5,5,6,6,7,7,8,8,10,10,11,11,12,12,13,13,14,14,15,15,16,16,17,17,19,19,20,20,22,22,23,23,24,24,26,26,27,27,28,28],"right_children":[2,4,6,-1,-1,8,10,12,14,-1,16,18,20,22,24,26,28,30,-1,32,34,-1,36,38,40,-1,42,44,46,-1,-1,-1,-1,-1,-1,-1,-1,-1,-1,-1,-1,-1,-1,-1,-1,-1,-1],"split_conditions":[7.086978E1,4.1485687E2,3E0,-3.2393423E2,-1.3072376E1,3E1,7E1,3.790569E2,9.961493E1,3.1371252E2,2E0,2.3E1,4E0,1.1570323E2,3.7267908E2,6E0,2.5E1,5.7575116E2,-2.1895116E2,6.387618E2,1.6295442E2,-1.8356961E2,3.3074593E1,4.569114E2,3E0,-1.1873482E2,7.6E1,5E0,5E0,-1.333265E2,2.8350122E1,-8.6936226E1,1.5619084E2,5.9212723E1,2.4979105E2,2.4225832E1,1.8979245E2,4.218449E1,-1.9347069E2,7.1564946E0,-2.583693E2,-2.9520302E1,3.385112E2,1.4613004E2,-1.9721678E2,5.6829716E1,2.2214862E2],"split_indices":[12,11,1,0,0,4,4,12,11,0,3,2,3,12,12,2,2,11,0,11,11,0,11,11,2,0,4,2,3,0,0,0,0,0,0,0,0,0,0,0,0,0,0,0,0,0,0],"split_type":[0,0,0,0,0,0,0,0,0,0,0,0,0,0,0,0,0,0,0,0,0,0,0,0,0,0,0,0,0,0,0,0,0,0,0,0,0,0,0,0,0,0,0,0,0,0,0],"sum_hessian":[8E1,4E0,7.6E1,3E0,1E0,4.5E1,3.1E1,2.3E1,2.2E1,8E0,2.3E1,7E0,1.6E1,6E0,1.6E1,6E0,1.7E1,6E0,1E0,9E0,7E0,1E0,5E0,5E0,1.1E1,1E0,5E0,1.4E1,3E0,4E0,2E0,5E0,4E0,1E0,6E0,2E0,3E0,3E0,2E0,1E0,1E1,1E0,4E0,3E0,1.1E1,2E0,1E0],"tree_param":{"num_deleted":"0","num_feature":"14","num_nodes":"47","size_leaf_vector":"1"}},{"base_weights":[2.7492707E0,-6.842794E2,4.7325817E1,-2.5104903E2,-1.1111518E1,-9.1510574E1,2.454242E2,-1.8643692E2,4.639986E2,7.668528E2,3.966246E1,5.804323E1,-3.8910446E2,1.19835815E2,2.0764853E2,2.9301367E2,8.6037634E2,4.9252792E2,-1.3865536E2,3.5791425E2,-1.4670772E2,-8.6481226E2,-1.9831908E2,4.387898E1,6.08302E0,1.1441316E2,1.7442993E1,3.5206314E1,2.8939627E2,6.449033E1,3.1252438E2,-2.806184E2,4.2836987E2,-3.4906166E1,1.3268665E2,1.50269E2,-9.7895485E1,-3.045401E2,-1.6980782E1,6.2151325E1,-9.000233E1,1.162564E2,-8.401124E1,1.13250755E2,-1.4298216E2,1.6049231E2,1.628346E1],"categories":[],"categories_nodes":[],"categories_segments":[],"categories_sizes":[],"default_left":[0,0,0,0,0,0,0,0,0,0,0,0,0,0,0,0,0,0,0,0,0,0,0,0,0,0,0,0,0,0,0,0,0,0,0,0,0,0,0,0,0,0,0,0,0,0,0],"id":3,"left_children":[1,3,5,-1,-1,7,9,11,13,15,17,19,21,23,-1,25,27,29,31,33,35,37,39,-1,-1,-1,-1,-1,-1,41,-1,43,45,-1,-1,-1,-1,-1,-1,-1,-1,-1,-1,-1,-1,-1,-1],"loss_changes":[2.5130388E6,4.6269025E5,2.1402102E6,0E0,0E0,2.5121995E6,3.4028665E6,2.0045125E6,4.66731E5,1.46734E5,2.0063874E6,1.2190875E6,1.8251688E6,7.558629E3,0E0,4.008736E4,4.29159E5,1.5784249E6,1.5691478E6,3.715915E5,1.5592504E6,6.71488E5,7.631269E5,0E0,0E0,0E0,0E0,0E0,0E0,6.6498625E5,0E0,2.114685E6,1.30482E5,0E0,0E0,0E0,0E0,0E0,0E0,0E0,0E0,0E0,0E0,0E0,0E0,0E0,0E0],"parents":[2147483647,0,0,1,1,2,2,5,5,6,6,7,7,8,8,9,9,10,10,11,11,12,12,13,13,15,15,16,16,17,17,18,18,19,19,20,20,21,21,22,22,29,29,31,31,32,32],"right_children":[2,4,6,-1,-1,8,10,12,14,16,18,20,22,24,-1,26,28,30,32,34,36,38,40,-1,-1,-1,-1,-1,-1,42,-1,44,46,-1,-1,-1,-1,-1,-1,-1,-1,-1,-1,-1,-1,-1,-1],"split_conditions":[7.086978E1,4.1485687E2,3E0,-2.5104903E2,-1.1111518E1,8.7923474E2,7E1,3.8033517E2,2E0,1E0,2E0,2E0,5.413808E2,2E0,2.0764853E2,2E0,3E0,8.620626E2,2.5E1,8.9494545E1,3.3304626E1,2.1E1,6.611175E2,4.387898E1,6.08302E0,1.1441316E2,1.7442993E1,3.5206314E1,2.8939627E2,6.5917645E2,3.1252438E2,5E0,2.9E1,-3.4906166E1,1.3268665E2,1.50269E2,-9.7895485E1,-3.045401E2,-1.6980782E1,6.2151325E1,-9.000233E1,1.162564E2,-8.401124E1,1.13250755E2,-1.4298216E2,1.6049231E2,1.628346E1],"split_indices":[12,11,1,0,0,12,4,13,3,3,3,1,13,1,0,2,2,13,2,12,11,2,13,0,0,0,0,0,0,13,0,2,2,0,0,0,0,0,0,0,0,0,0,0,0,0,0],"split_type":[0,0,0,0,0,0,0,0,0,0,0,0,0,0,0,0,0,0,0,0,0,0,0,0,0,0,0,0,0,0,0,0,0,0,0,0,0,0,0,0,0,0,0,0,0,0,0],"sum_hessian":[8E1,4E0,7.6E1,3E0,1E0,4.5E1,3.1E1,3.9E1,6E0,8E0,2.3E1,1.8E1,2.1E1,3E0,3E0,2E0,6E0,6E0,1.7E1,7E0,1.1E1,5E0,1.6E1,2E0,1E0,1E0,1E0,1E0,5E0,4E0,2E0,1.4E1,3E0,1E0,6E0,2E0,9E0,4E0,1E0,3E0,1.3E1,2E0,2E0,3E0,1.1E1,2E0,1E0],"tree_param":{"num_deleted":"0","num_feature":"14","num_nodes":"47","size_leaf_vector":"1"}},{"base_weights":[1.1115929E1,-5.314276E2,4.6201668E1,-1.9456297E2,-9.444782E0,-6.2787975E1,2.0143048E2,-1.3548627E2,3.616006E2,2.8483047E2,-4.5357703E2,4.853313E1,-2.8825366E2,9.637561E1,1.6092763E2,5.8751465E2,1.4154532E2,-1.7477777E2,-9.979578E0,2.070342E2,-2.5275931E2,-6.5895544E2,-1.4046164E2,3.51032E1,5.170569E0,2.4906169E2,6.4863525E2,2.2419159E2,-2.2670706E2,3.035604E1,1.5783899E2,5.6952225E1,-1.4033025E2,-2.314505E2,-1.4433656E1,-6.7137375E1,5.5892216E1,9.72512E1,1.4826563E1,2.9925367E1,2.1704723E2,1.3646297E1,2.7829065E2],"categories":[],"categories_nodes":[],"categories_segments":[],"categories_sizes":[],"default_left":[0,0,0,0,0,0,0,0,0,0,0,0,0,0,0,0,0,0,0,0,0,0,0,0,0,0,0,0,0,0,0,0,0,0,0,0,0,0,0,0,0,0,0],"id":4,"left_children":[1,3,5,-1,-1,7,9,11,13,15,17,19,21,23,-1,25,27,-1,-1,29,31,33,35,-1,-1,37,39,41,-1,-1,-1,-1,-1,-1,-1,-1,-1,-1,-1,-1,-1,-1,-1],"loss_changes":[1.5664319E6,2.7233888E5,1.315359E6,0E0,0E0,1.4681989E6,1.8772761E6,1.1384762E6,2.72877E5,1.1745742E6,1.9752681E5,9.5967806E5,1.1127509E6,4.5155586E3,0E0,2.4628E4,1.7266362E6,0E0,0E0,3.8584362E5,7.549396E5,3.7536975E5,5.0459603E5,0E0,0E0,2.8963094E4,2.1543975E5,2.471968E6,0E0,0E0,0E0,0E0,0E0,0E0,0E0,0E0,0E0,0E0,0E0,0E0,0E0,0E0,0E0],"parents":[2147483647,0,0,1,1,2,2,5,5,6,6,7,7,8,8,9,9,10,10,11,11,12,12,13,13,15,15,16,16,19,19,20,20,21,21,22,22,25,25,26,26,27,27],"right_children":[2,4,6,-1,-1,8,10,12,14,16,18,20,22,24,-1,26,28,-1,-1,30,32,34,36,-1,-1,38,40,42,-1,-1,-1,-1,-1,-1,-1,-1,-1,-1,-1,-1,-1,-1,-1],"split_conditions":[7.086978E1,4.1485687E2,3E0,-1.9456297E2,-9.444782E0,8.7923474E2,9.8E1,3.8033517E2,2E0,7E1,1E1,6.222311E2,5.413808E2,2E0,1.6092763E2,1E0,9.6828644E2,-1.7477777E2,-9.979578E0,4.3E1,2E0,2.1E1,5.5207825E2,3.51032E1,5.170569E0,2E0,3E0,8.620626E2,-2.2670706E2,3.035604E1,1.5783899E2,5.6952225E1,-1.4033025E2,-2.314505E2,-1.4433656E1,-6.7137375E1,5.5892216E1,9.72512E1,1.4826563E1,2.9925367E1,2.1704723E2,1.3646297E1,2.7829065E2],"split_indices":[12,11,1,0,0,12,4,13,3,4,2,12,13,1,0,3,13,0,0,4,1,2,12,0,0,2,2,13,0,0,0,0,0,0,0,0,0,0,0,0,0,0,0],"split_type":[0,0,0,0,0,0,0,0,0,0,0,0,0,0,0,0,0,0,0,0,0,0,0,0,0,0,0,0,0,0,0,0,0,0,0,0,0,0,0,0,0,0,0],"sum_hessian":[8E1,4E0,7.6E1,3E0,1E0,4.5E1,3.1E1,3.9E1,6E0,2.8E1,3E0,1.8E1,2.1E1,3E0,3E0,8E0,2E1,2E0,1E0,1.2E1,6E0,5E0,1.6E1,2E0,1E0,2E0,6E0,1.9E1,1E0,1E1,2E0,2E0,4E0,4E0,1E0,1.3E1,3E0,1E0,1E0,1E0,5E0,1.6E1,3E0],"tree_param":{"num_deleted":"0","num_feature":"14","num_nodes":"43","size_leaf_vector":"1"}},{"base_weights":[8.823194E0,4.1413412E2,-2.3291132E1,1.6247174E2,1.8349178E2,-1.1255406E2,1.3375082E2,8.373011E0,5.940669E1,3.403113E2,-1.7175038E2,2.5579176E2,-2.689137E2,-7.852417E0,2.0732777E2,-2.4925388E2,1.1668685E2,1.10049706E2,6.2609564E2,-4.817151E2,1.7539319E2,6.629232E1,-3.4542995E1,-1.6110197E2,-6.48471E2,9.129462E0,1.627055E2,1.603524E2,1.7821407E1,2.058215E2,4.893234E1,-1.100713E1,-2.2985042E2,-3.7365785E0,8.266351E1,4.394971E0,2.5436573E1,-1.4226405E2,-2.8407602E1,-2.2968275E1,-2.2426225E2,-8.938722E1,2.5428E1,-5.8797703E1,4.3298256E1],"categories":[],"categories_nodes":[],"categories_segments":[],"categories_sizes":[],"default_left":[0,0,0,0,0,0,0,0,0,0,0,0,0,0,0,0,0,0,0,0,0,0,0,0,0,0,0,0,0,0,0,0,0,0,0,0,0,0,0,0,0,0,0,0,0],"id":5,"left_children":[1,3,5,7,-1,9,11,-1,-1,13,15,17,19,21,-1,23,25,27,29,31,33,35,-1,37,39,41,-1,-1,43,-1,-1,-1,-1,-1,-1,-1,-1,-1,-1,-1,-1,-1,-1,-1,-1],"loss_changes":[1.0639649E6,1.9885344E5,1.0804241E6,1.3608164E4,0E0,1.3720388E6,1.4447495E6,0E0,0E0,7.382025E5,1.0127E6,1.1184129E6,7.463335E5,3.945334E4,0E0,1.127241E6,4.528826E5,6.5597444E5,5.47055E4,6.048319E5,5.9872094E4,1.6234297E3,0E0,5.7890756E5,2.82722E5,2.3428116E5,0E0,0E0,4.3401828E5,0E0,0E0,0E0,0E0,0E0,0E0,0E0,0E0,0E0,0E0,0E0,0E0,0E0,0E0,0E0,0E0],"parents":[2147483647,0,0,1,1,2,2,3,3,5,5,6,6,9,9,10,10,11,11,12,12,13,13,15,15,16,16,17,17,18,18,19,19,20,20,21,21,23,23,24,24,25,25,28,28],"right_children":[2,4,6,8,-1,10,12,-1,-1,14,16,18,20,22,-1,24,26,28,30,32,34,36,-1,38,40,42,-1,-1,44,-1,-1,-1,-1,-1,-1,-1,-1,-1,-1,-1,-1,-1,-1,-1,-1],"split_conditions":[6.320762E1,2.9E1,6.982485E2,1.3E1,1.8349178E2,4E0,9.7622565E2,8.373011E0,5.940669E1,5E0,2.6E1,9.358321E2,9.979623E2,4E0,2.0732777E2,5.810819E2,6.611175E2,7.453981E2,7.4878827E2,9.8058014E2,3E0,3E0,-3.4542995E1,1.3346147E2,2.4E1,3.0235258E1,1.627055E2,1.603524E2,4.5722345E2,2.058215E2,4.893234E1,-1.100713E1,-2.2985042E2,-3.7365785E0,8.266351E1,4.394971E0,2.5436573E1,-1.4226405E2,-2.8407602E1,-2.2968275E1,-2.2426225E2,-8.938722E1,2.5428E1,-5.8797703E1,4.3298256E1],"split_indices":[13,4,13,2,0,2,13,0,0,3,2,13,13,1,0,13,13,13,12,13,1,1,0,13,4,12,0,0,11,0,0,0,0,0,0,0,0,0,0,0,0,0,0,0,0],"split_type":[0,0,0,0,0,0,0,0,0,0,0,0,0,0,0,0,0,0,0,0,0,0,0,0,0,0,0,0,0,0,0,0,0,0,0,0,0,0,0,0,0,0,0,0,0],"sum_hessian":[8E1,5E0,7.5E1,3E0,2E0,4.8E1,2.7E1,1E0,2E0,5E0,4.3E1,2.1E1,6E0,3E0,2E0,3.4E1,9E0,1.6E1,5E0,4E0,2E0,2E0,1E0,2.9E1,5E0,8E0,1E0,2E0,1.4E1,4E0,1E0,2E0,2E0,1E0,1E0,1E0,1E0,4E0,2.5E1,1E0,4E0,1E0,7E0,5E0,9E0],"tree_param":{"num_deleted":"0","num_feature":"14","num_nodes":"45","size_leaf_vector":"1"}},{"base_weights":[1.0773866E1,-3.1844833E2,3.662333E1,-1.2513202E2,-8.075436E1,3.3177246E2,1.1165329E1,-2.9962465E1,-6.376996E0,1.3067511E2,1.4679344E2,-9.861654E1,9.8711685E1,7.1170535E0,4.752534E1,8.008704E1,-2.8232556E2,1.665591E2,-3.135168E2,-1.1712198E2,3.7854593E2,-2.144398E1,-3.9895865E2,3.221923E2,1.6726278E0,5.6635804E0,-3.837716E2,-9.5895256E1,3.1478168E1,1.2340573E2,2.7256056E1,4.7845642E1,-7.666058E1,3.7308353E-1,-1.4640921E2,1.4226045E2,3.52482E1,1.3217897E2,-4.6561615E1,-1.6913571E2,-2.2750086E1],"categories":[],"categories_nodes":[],"categories_segments":[],"categories_sizes":[],"default_left":[0,0,0,0,0,0,0,0,0,0,0,0,0,0,0,0,0,0,0,0,0,0,0,0,0,0,0,0,0,0,0,0,0,0,0,0,0,0,0,0,0],"id":6,"left_children":[1,3,5,-1,7,9,11,-1,-1,13,-1,15,17,-1,-1,19,21,23,25,27,29,31,33,35,37,-1,39,-1,-1,-1,-1,-1,-1,-1,-1,-1,-1,-1,-1,-1,-1],"loss_changes":[7.0099025E5,1.0701981E5,5.673526E5,0E0,1.289877E3,1.2614319E5,6.921158E5,0E0,0E0,8.1102734E3,0E0,1.0731534E6,1.1709645E6,0E0,0E0,1.0449354E6,4.782835E5,8.976242E5,1.4735938E5,5.282252E5,2.8694438E4,2.9487822E5,3.92722E5,5.0437275E5,1.3078181E6,0E0,2.3441194E5,0E0,0E0,0E0,0E0,0E0,0E0,0E0,0E0,0E0,0E0,0E0,0E0,0E0,0E0],"parents":[2147483647,0,0,1,1,2,2,4,4,5,5,6,6,9,9,11,11,12,12,15,15,16,16,17,17,18,18,19,19,20,20,21,21,22,22,23,23,24,24,26,26],"right_children":[2,4,6,-1,8,10,12,-1,-1,14,-1,16,18,-1,-1,20,22,24,26,28,30,32,34,36,38,-1,40,-1,-1,-1,-1,-1,-1,-1,-1,-1,-1,-1,-1,-1,-1],"split_conditions":[8.9494545E1,4.1485687E2,6.320762E1,-1.2513202E2,2E0,2.9E1,5E1,-2.9962465E1,-6.376996E0,1.3E1,1.4679344E2,2.5E1,9.5E1,7.1170535E0,4.752534E1,6.387618E2,3.27988E2,2E1,2.3774182E2,1.5E1,1.8E1,4.2E1,6E0,7E1,2E0,5.6635804E0,9E0,-9.5895256E1,3.1478168E1,1.2340573E2,2.7256056E1,4.7845642E1,-7.666058E1,3.7308353E-1,-1.4640921E2,1.4226045E2,3.52482E1,1.3217897E2,-4.6561615E1,-1.6913571E2,-2.2750086E1],"split_indices":[12,11,13,0,1,4,4,0,0,2,0,4,4,0,0,11,13,2,12,2,2,4,2,4,3,0,2,0,0,0,0,0,0,0,0,0,0,0,0,0,0],"split_type":[0,0,0,0,0,0,0,0,0,0,0,0,0,0,0,0,0,0,0,0,0,0,0,0,0,0,0,0,0,0,0,0,0,0,0,0,0,0,0,0,0],"sum_hessian":[8E1,5E0,7.5E1,3E0,2E0,5E0,7E1,1E0,1E0,3E0,2E0,3.1E1,3.9E1,1E0,2E0,1.6E1,1.5E1,3.4E1,5E0,1E1,6E0,5E0,1E1,1.7E1,1.7E1,1E0,4E0,5E0,5E0,5E0,1E0,3E0,2E0,2E0,8E0,9E0,8E0,4E0,1.3E1,2E0,2E0],"tree_param":{"num_deleted":"0","num_feature":"14","num_nodes":"41","size_leaf_vector":"1"}},{"base_weights":[7.8905926E0,2.6374874E1,-2.7834546E2,-7.81158E0,2.8554047E2,-1.6963463E2,1.0153967E2,2.4858469E2,-3.617606E1,3.7554205E2,-5.8930054E0,-3.2320497E0,4.8924904E1,4.492036E1,1.515491E2,-9.247821E1,1.5015605E2,6.1687878E1,1.6006631E2,6.437729E1,-5.114502E1,2.4261232E1,-1.8089928E2,-5.203493E1,3.335775E2,2.6411867E0,-3.4648792E1,2.3541176E1,-1.0356646E2,-9.614254E0,-1.0505583E2,2.3055202E1,-8.773835E1,4.9621243E1,1.6761954E2],"categories":[],"categories_nodes":[],"categories_segments":[],"categories_sizes":[],"default_left":[0,0,0,0,0,0,0,0,0,0,0,0,0,0,0,0,0,0,0,0,0,0,0,0,0,0,0,0,0,0,0,0,0,0,0],"id":7,"left_children":[1,3,5,7,9,-1,11,13,15,17,-1,-1,-1,19,-1,21,23,-1,-1,-1,25,27,29,31,33,-1,-1,-1,-1,-1,-1,-1,-1,-1,-1],"loss_changes":[4.3590156E5,6.844469E5,6.027468E5,5.1079853E5,2.5458012E5,0E0,2.2493357E4,3.4309972E5,6.748128E5,7.822869E4,0E0,0E0,0E0,9.24726E4,0E0,5.101779E5,5.736502E5,0E0,0E0,0E0,1.6447916E4,4.6773694E5,6.9433944E5,2.7037566E5,2.1050306E5,0E0,0E0,0E0,0E0,0E0,0E0,0E0,0E0,0E0,0E0],"parents":[2147483647,0,0,1,1,2,2,3,3,4,4,6,6,7,7,8,8,9,9,13,13,15,15,16,16,20,20,21,21,22,22,23,23,24,24],"right_children":[2,4,6,8,10,-1,12,14,16,18,-1,-1,-1,20,-1,22,24,-1,-1,-1,26,28,30,32,34,-1,-1,-1,-1,-1,-1,-1,-1,-1,-1],"split_conditions":[9.8058014E2,9.233061E2,9.979623E2,4E0,9.7622565E2,-1.6963463E2,3E0,3E0,2.6E1,3E0,-5.8930054E0,-3.2320497E0,4.8924904E1,2E0,1.515491E2,1.1E1,3.9902533E2,6.1687878E1,1.6006631E2,6.437729E1,4E0,9.8E1,3.7824518E2,2.3274413E2,3E0,2.6411867E0,-3.4648792E1,2.3541176E1,-1.0356646E2,-9.614254E0,-1.0505583E2,2.3055202E1,-8.773835E1,4.9621243E1,1.6761954E2],"split_indices":[13,13,13,2,13,0,1,2,2,1,0,0,0,1,0,2,11,0,0,0,1,4,13,11,3,0,0,0,0,0,0,0,0,0,0],"split_type":[0,0,0,0,0,0,0,0,0,0,0,0,0,0,0,0,0,0,0,0,0,0,0,0,0,0,0,0,0,0,0,0,0,0,0],"sum_hessian":[8E1,7.6E1,4E0,6.8E1,8E0,2E0,2E0,6E0,6.2E1,6E0,2E0,1E0,1E0,4E0,2E0,4.8E1,1.4E1,4E0,2E0,1E0,3E0,2.1E1,2.7E1,7E0,7E0,2E0,1E0,1.9E1,2E0,1.5E1,1.2E1,5E0,2E0,5E0,2E0],"tree_param":{"num_deleted":"0","num_feature":"14","num_nodes":"35","size_leaf_vector":"1"}},{"base_weights":[8.40859E0,-2.3493933E2,2.7509628E1,-9.144147E1,-6.3472168E1,5.7299507E1,-1.21264366E2,-2.4025965E1,-4.5365114E0,1.2940009E1,2.14802E2,-4.315938E2,6.461469E1,2.6118503E2,-1.9721079E1,-9.117846E1,2.7808344E2,-3.938271E1,-1.4215633E2,-7.464258E1,1.4668376E2,7.4916506E0,3.0343317E2,-1.2172849E2,7.048073E0,3.637487E2,-5.600586E0,-1.1414795E-1,-2.9780933E1,3.7439453E1,7.303448E1,2.5319166E1,1.0112785E2,5.0011463E1,-2.9895248E1,6.0712833E1,1.4539383E2,7.520838E0,-7.254126E0,4.3973366E1,-1.4339795E1],"categories":[],"categories_nodes":[],"categories_segments":[],"categories_sizes":[],"default_left":[0,0,0,0,0,0,0,0,0,0,0,0,0,0,0,0,0,0,0,0,0,0,0,0,0,0,0,0,0,0,0,0,0,0,0,0,0,0,0,0,0],"id":8,"left_children":[1,3,5,-1,7,9,11,-1,-1,13,15,17,19,21,23,-1,25,-1,-1,27,29,-1,31,-1,33,35,37,-1,-1,39,-1,-1,-1,-1,-1,-1,-1,-1,-1,-1,-1],"loss_changes":[3.829671E5,5.253128E4,3.437773E5,0E0,1.1988936E3,4.443713E5,7.777759E5,0E0,0E0,4.186564E5,5.440811E5,1.252625E3,1.1380729E5,5.229997E4,4.782228E5,0E0,3.1796144E5,0E0,0E0,7.2776973E3,5.4311234E4,0E0,8.4136875E3,0E0,7.661613E5,9.7014375E4,2.8855674E3,0E0,0E0,4.421762E4,0E0,0E0,0E0,0E0,0E0,0E0,0E0,0E0,0E0,0E0,0E0],"parents":[2147483647,0,0,1,1,2,2,4,4,5,5,6,6,9,9,10,10,11,11,12,12,13,13,14,14,16,16,19,19,20,20,22,22,24,24,25,25,26,26,29,29],"right_children":[2,4,6,-1,8,10,12,-1,-1,14,16,18,20,22,24,-1,26,-1,-1,28,30,-1,32,-1,34,36,38,-1,-1,40,-1,-1,-1,-1,-1,-1,-1,-1,-1,-1,-1],"split_conditions":[8.9494545E1,4.1485687E2,9.249669E2,-9.144147E1,2E0,7.2416766E2,9.589827E2,-2.4025965E1,-4.5365114E0,9.6803955E1,1E0,4.3E1,6.5917645E2,1.4E1,1.3346147E2,-9.117846E1,8.8E1,-3.938271E1,-1.4215633E2,6.2E1,9E0,7.4916506E0,1.6053882E2,-1.2172849E2,2.531912E2,3.374774E2,4E0,-1.1414795E-1,-2.9780933E1,4E0,7.303448E1,2.5319166E1,1.0112785E2,5.0011463E1,-2.9895248E1,6.0712833E1,1.4539383E2,7.520838E0,-7.254126E0,4.3973366E1,-1.4339795E1],"split_indices":[12,11,11,0,1,11,11,0,0,13,3,4,13,4,13,0,4,0,0,4,2,0,11,0,11,13,1,0,0,2,0,0,0,0,0,0,0,0,0,0,0],"split_type":[0,0,0,0,0,0,0,0,0,0,0,0,0,0,0,0,0,0,0,0,0,0,0,0,0,0,0,0,0,0,0,0,0,0,0,0,0,0,0,0,0],"sum_hessian":[8E1,5E0,7.5E1,3E0,2E0,6.3E1,1.2E1,1E0,1E0,5E1,1.3E1,4E0,8E0,5E0,4.5E1,1E0,1.2E1,1E0,3E0,3E0,5E0,1E0,4E0,2E0,4.3E1,9E0,3E0,1E0,2E0,3E0,2E0,1E0,3E0,1.7E1,2.6E1,5E0,4E0,1E0,2E0,1E0,2E0],"tree_param":{"num_deleted":"0","num_feature":"14","num_nodes":"41","size_leaf_vector":"1"}},{"base_weights":[4.882946E0,-1.8445819E2,1.9766682E1,-3.8560364E0,-6.486254E1,3.311294E1,-1.763728E2,5.7215075E0,2.2421725E2,-1.1850254E2,1.01053795E2,7.787652E1,-6.0235165E1,1.11441284E2,3.373269E2,-5.9626466E-1,4.6070473E1,1.02177826E2,-9.76744E1,-2.5337589E2,8.937973E0,4.069766E1,-1.446991E0,2.764142E1,1.1650316E2,4.115129E1,-4.787107E1,-1.23090004E2,-1.3732977E1,-5.1360584E1,2.1462013E1],"categories":[],"categories_nodes":[],"categories_segments":[],"categories_sizes":[],"default_left":[0,0,0,0,0,0,0,0,0,0,0,0,0,0,0,0,0,0,0,0,0,0,0,0,0,0,0,0,0,0,0],"id":9,"left_children":[1,3,5,-1,-1,7,9,11,13,-1,15,17,19,21,23,-1,-1,25,-1,27,29,-1,-1,-1,-1,-1,-1,-1,-1,-1,-1],"loss_changes":[2.319125E5,2.9911938E4,2.047876E5,0E0,0E0,3.7560988E5,3.431938E5,3.092736E5,7.721228E4,0E0,1.6538701E4,3.372083E5,4.5650975E5,1.754821E4,1.4253875E4,0E0,0E0,2.966699E5,0E0,2.744138E5,3.054532E5,0E0,0E0,0E0,0E0,0E0,0E0,0E0,0E0,0E0,0E0],"parents":[2147483647,0,0,1,1,2,2,5,5,6,6,7,7,8,8,10,10,11,11,12,12,13,13,14,14,17,17,19,19,20,20],"right_children":[2,4,6,-1,-1,8,10,12,14,-1,16,18,20,22,24,-1,-1,26,-1,28,30,-1,-1,-1,-1,-1,-1,-1,-1,-1,-1],"split_conditions":[8.9494545E1,1.6871674E1,9.8058014E2,-3.8560364E0,-6.486254E1,9.2234796E2,9.979623E2,3.8913467E2,1.6E1,-1.1850254E2,3E0,9.7E1,5.413808E2,2E0,3E0,-5.9626466E-1,4.6070473E1,9.249669E2,-9.76744E1,5.2E1,1E0,4.069766E1,-1.446991E0,2.764142E1,1.1650316E2,4.115129E1,-4.787107E1,-1.23090004E2,-1.3732977E1,-5.1360584E1,2.1462013E1],"split_indices":[12,12,13,0,0,13,13,13,2,0,1,4,13,1,1,0,0,11,0,4,3,0,0,0,0,0,0,0,0,0,0],"split_type":[0,0,0,0,0,0,0,0,0,0,0,0,0,0,0,0,0,0,0,0,0,0,0,0,0,0,0,0,0,0,0],"sum_hessian":[8E1,5E0,7.5E1,1E0,4E0,7.1E1,4E0,6.3E1,8E0,2E0,2E0,3E1,3.3E1,5E0,3E0,1E0,1E0,2.9E1,1E0,8E0,2.5E1,4E0,1E0,1E0,2E0,2.6E1,3E0,4E0,4E0,6E0,1.9E1],"tree_param":{"num_deleted":"0","num_feature":"14","num_nodes":"31","size_leaf_vector":"1"}},{"base_weights":[5.851361E-1,-3.399526E1,6.0504982E1,3.4218945E1,-1.5427356E2,-5.2558247E1,1.3880037E2,2.845597E2,8.1307393E-1,6.955188E1,-1.8860426E2,1.6534218E1,-8.651337E1,2.3721223E2,-4.9734295E1,7.083655E0,1.0910145E2,2.928894E2,-2.9429756E1,1.5545074E1,-2.3047047E2,-6.46459E1,9.203726E1,2.9035458E2,-5.2103046E1,6.0406204E1,-1.9044041E2,-1.1011597E0,1.329014E2,9.5781296E1,-9.05638E1,8.250477E0,-3.0486696E0,-2.9424564E2,-4.4070995E1,3.551255E1,-9.692383E-2,9.0121765E1,3.5417667E2,-2.3600063E2,-1.2299378E0,7.6709843E0,4.82636E1,9.003513E0,-5.2034534E1,-9.606146E1,-5.197998E0,1.8339845E0,-1.7443617E1,4.632019E-1,-5.0681764E-1,-8.382496E0,6.6646805E1,2.3495216E1,1.14719086E2,-8.907386E0,-8.8462E1],"categories":[],"categories_nodes":[],"categories_segments":[],"categories_sizes":[],"default_left":[0,0,0,0,0,0,0,0,0,0,0,0,0,0,0,0,0,0,0,0,0,0,0,0,0,0,0,0,0,0,0,0,0,0,0,0,0,0,0,0,0,0,0,0,0,0,0,0,0,0,0,0,0,0,0,0,0],"id":10,"left_children":[1,3,5,7,9,11,13,15,17,-1,19,21,-1,23,25,-1,-1,27,29,31,33,-1,35,37,-1,-1,39,-1,-1,41,43,-1,-1,45,47,-1,49,51,53,55,-1,-1,-1,-1,-1,-1,-1,-1,-1,-1,-1,-1,-1,-1,-1,-1,-1],"loss_changes":[1.6989308E5,4.319228E5,2.72865E5,2.8410556E5,2.955812E5,2.1658177E5,3.457704E5,7.398897E4,2.824493E5,0E0,1.5742794E5,2.1253358E5,0E0,3.124552E5,2.8565356E5,0E0,0E0,1.3518055E5,2.306594E5,1.5089565E3,1.6534712E5,0E0,2.1851055E4,1.08653E5,0E0,0E0,4.148103E4,0E0,0E0,4.159208E4,2.0508262E5,0E0,0E0,7.3526625E4,3.8870244E3,0E0,1.044782E1,6.856106E4,3.2330312E4,3.982878E4,0E0,0E0,0E0,0E0,0E0,0E0,0E0,0E0,0E0,0E0,0E0,0E0,0E0,0E0,0E0,0E0,0E0],"parents":[2147483647,0,0,1,1,2,2,3,3,4,4,5,5,6,6,7,7,8,8,10,10,11,11,13,13,14,14,17,17,18,18,19,19,20,20,22,22,23,23,26,26,29,29,30,30,33,33,34,34,36,36,37,37,38,38,39,39],"right_children":[2,4,6,8,10,12,14,16,18,-1,20,22,-1,24,26,-1,-1,28,30,32,34,-1,36,38,-1,-1,40,-1,-1,42,44,-1,-1,46,48,-1,50,52,54,56,-1,-1,-1,-1,-1,-1,-1,-1,-1,-1,-1,-1,-1,-1,-1,-1,-1],"split_conditions":[6.8493445E2,3.8913467E2,3.7E1,4E0,8E0,2.1E1,8.5772266E2,2E0,3.3304626E1,6.955188E1,3E0,5E0,-8.651337E1,9.402097E2,5.199524E2,7.083655E0,1.0910145E2,9E0,2E0,8E0,2.1E1,-6.46459E1,2E1,2.277595E2,-5.2103046E1,6.0406204E1,3E0,-1.1011597E0,1.329014E2,4E0,3.7267908E2,8.250477E0,-3.0486696E0,9.3E1,1.5606065E1,3.551255E1,2E0,1.7E1,3E0,6.8E1,-1.2299378E0,7.6709843E0,4.82636E1,9.003513E0,-5.2034534E1,-9.606146E1,-5.197998E0,1.8339845E0,-1.7443617E1,4.632019E-1,-5.0681764E-1,-8.382496E0,6.6646805E1,2.3495216E1,1.14719086E2,-8.907386E0,-8.8462E1],"split_indices":[13,13,4,2,4,2,11,3,11,0,3,2,0,12,12,0,0,2,1,2,2,0,4,12,0,0,3,0,0,3,12,0,0,4,11,0,1,2,1,4,0,0,0,0,0,0,0,0,0,0,0,0,0,0,0,0,0],"split_type":[0,0,0,0,0,0,0,0,0,0,0,0,0,0,0,0,0,0,0,0,0,0,0,0,0,0,0,0,0,0,0,0,0,0,0,0,0,0,0,0,0,0,0,0,0,0,0,0,0,0,0,0,0,0,0,0,0],"sum_hessian":[8E1,5.1E1,2.9E1,3.3E1,1.8E1,1.2E1,1.7E1,3E0,3E1,1E0,1.7E1,1E1,2E0,1.1E1,6E0,1E0,2E0,2E0,2.8E1,3E0,1.4E1,2E0,8E0,1E1,1E0,2E0,4E0,1E0,1E0,9E0,1.9E1,2E0,1E0,1E1,4E0,6E0,2E0,3E0,7E0,3E0,1E0,5E0,4E0,8E0,1.1E1,9E0,1E0,1E0,3E0,1E0,1E0,2E0,1E0,1E0,6E0,1E0,2E0],"tree_param":{"num_deleted":"0","num_feature":"14","num_nodes":"57","size_leaf_vector":"1"}},{"base_weights":[2.993125E0,-5.6441464E0,5.1201492E1,-5.2441025E1,3.3665894E1,1.7255859E0,-1.2838931E2,1.12966194E2,1.6536322E1,-5.9056446E1,3.1426367E1,-1.3778687E0,-1.9175725E2,-4.6421665E1,1.0305929E2,4.9154423E1,-4.5811005E1,4.2835865E1,-3.336698E1,-1.5212117E1,-7.019761E1,1.667876E2,-8.307691E1,1.7807985E2,-4.0270153E1,3.871293E1,7.069012E-1,1.4383302E0,2.9250238E1,-6.414661E0,-4.3079224E-1,-5.1822023E0,1.0784586E2,8.085687E0,-3.7806713E1,6.633297E1,-4.4287594E1,4.8324955E1,-4.590844E1],"categories":[],"categories_nodes":[],"categories_segments":[],"categories_sizes":[],"default_left":[0,0,0,0,0,0,0,0,0,0,0,0,0,0,0,0,0,0,0,0,0,0,0,0,0,0,0,0,0,0,0,0,0,0,0,0,0,0,0],"id":11,"left_children":[1,3,-1,5,7,9,11,-1,13,-1,15,17,19,21,23,25,-1,27,-1,29,-1,31,33,35,37,-1,-1,-1,-1,-1,-1,-1,-1,-1,-1,-1,-1,-1,-1],"loss_changes":[1.1827435E5,1.4525327E5,0E0,1.4832056E5,2.4633478E5,1.3594228E5,1.2046259E5,0E0,2.335713E5,0E0,7.279128E4,3.39044E4,7.100391E4,2.0923716E5,2.0071912E5,7.073003E4,0E0,9.930199E3,0E0,2.242956E2,0E0,1.4808344E5,1.073522E5,2.0082266E5,1.835796E5,0E0,0E0,0E0,0E0,0E0,0E0,0E0,0E0,0E0,0E0,0E0,0E0,0E0,0E0],"parents":[2147483647,0,0,1,1,3,3,4,4,5,5,6,6,8,8,10,10,11,11,12,12,13,13,14,14,15,15,17,17,19,19,21,21,22,22,23,23,24,24],"right_children":[2,4,-1,6,8,10,12,-1,14,-1,16,18,20,22,24,26,-1,28,-1,30,-1,32,34,36,38,-1,-1,-1,-1,-1,-1,-1,-1,-1,-1,-1,-1,-1,-1],"split_conditions":[9.627703E2,5E1,5.1201492E1,2.9E1,5.1E1,1E0,3E0,1.12966194E2,6.611175E2,-5.9056446E1,9.704937E2,1.7E1,6E0,4E0,8.5772266E2,1.1E1,-4.5811005E1,2E0,-3.336698E1,5E0,-7.019761E1,3E0,3E0,9.402097E2,5.199524E2,3.871293E1,7.069012E-1,1.4383302E0,2.9250238E1,-6.414661E0,-4.3079224E-1,-5.1822023E0,1.0784586E2,8.085687E0,-3.7806713E1,6.633297E1,-4.4287594E1,4.8324955E1,-4.590844E1],"split_indices":[12,4,0,4,4,3,3,0,13,0,13,2,2,2,11,2,0,3,0,2,0,2,3,12,12,0,0,0,0,0,0,0,0,0,0,0,0,0,0],"split_type":[0,0,0,0,0,0,0,0,0,0,0,0,0,0,0,0,0,0,0,0,0,0,0,0,0,0,0,0,0,0,0,0,0,0,0,0,0,0,0],"sum_hessian":[8E1,7.7E1,3E0,3.5E1,4.2E1,2.1E1,1.4E1,1E0,4.1E1,2E0,1.9E1,5E0,9E0,2.4E1,1.7E1,1.8E1,1E0,4E0,1E0,2E0,7E0,3E0,2.1E1,1.1E1,6E0,6E0,1.2E1,3E0,1E0,1E0,1E0,2E0,1E0,6E0,1.5E1,1E1,1E0,2E0,4E0],"tree_param":{"num_deleted":"0","num_feature":"14","num_nodes":"39","size_leaf_vector":"1"}},{"base_weights":[3.5322635E0,-1.2045606E2,1.3274338E1,-4.2245445E1,-1.5946376E1,2.270097E1,-1.2512403E2,1.0800559E1,1.3166185E2,-7.031929E1,2.5857584E1,1.1777417E2,-1.8597046E0,5.6902424E1,1.2220048E1,-3.6617434E-1,1.2002088E1,3.5548786E1,9.1668976E1,-2.3375082E1,7.050333E1,1.8004395E1,-1.3017078E1,2.624135E0,-3.2417953E1,-4.080304E0,4.0584515E1],"categories":[],"categories_nodes":[],"categories_segments":[],"categories_sizes":[],"default_left":[0,0,0,0,0,0,0,0,0,0,0,0,0,0,0,0,0,0,0,0,0,0,0,0,0,0,0],"id":12,"left_children":[1,3,5,-1,-1,7,9,11,13,-1,15,17,19,-1,-1,-1,-1,21,-1,23,25,-1,-1,-1,-1,-1,-1],"loss_changes":[9.9439164E4,7.372578E2,1.0199234E5,0E0,0E0,9.1938875E4,8.8552484E4,8.960376E4,2.9199016E4,0E0,1.1982489E3,9.722479E4,9.50631E4,0E0,0E0,0E0,0E0,1.4191924E4,0E0,1.28797445E5,7.811396E4,0E0,0E0,0E0,0E0,0E0,0E0],"parents":[2147483647,0,0,1,1,2,2,5,5,6,6,7,7,8,8,10,10,11,11,12,12,17,17,19,19,20,20],"right_children":[2,4,6,-1,-1,8,10,12,14,-1,16,18,20,-1,-1,-1,-1,22,-1,24,26,-1,-1,-1,-1,-1,-1],"split_conditions":[8.9494545E1,4.1485687E2,9.8058014E2,-4.2245445E1,-1.5946376E1,9.358321E2,9.979623E2,4E0,6.7195715E2,-7.031929E1,3E0,9.3E1,2.6E1,5.6902424E1,1.2220048E1,-3.6617434E-1,1.2002088E1,4E0,9.1668976E1,7E1,3.9902533E2,1.8004395E1,-1.3017078E1,2.624135E0,-3.2417953E1,-4.080304E0,4.0584515E1],"split_indices":[12,11,13,0,0,13,13,2,12,0,1,4,2,0,0,0,0,1,0,4,11,0,0,0,0,0,0],"split_type":[0,0,0,0,0,0,0,0,0,0,0,0,0,0,0,0,0,0,0,0,0,0,0,0,0,0,0],"sum_hessian":[8E1,5E0,7.5E1,3E0,2E0,7.1E1,4E0,6.5E1,6E0,2E0,2E0,6E0,5.9E1,3E0,3E0,1E0,1E0,5E0,1E0,4.6E1,1.3E1,4E0,1E0,3.4E1,1.2E1,6E0,7E0],"tree_param":{"num_deleted":"0","num_feature":"14","num_nodes":"27","size_leaf_vector":"1"}},{"base_weights":[3.1592066E0,-3.0792511E1,3.2409344E1,1.0635304E1,-9.502418E1,9.562764E1,1.8337059E1,-1.286959E2,2.9151592E1,1.3172455E0,-1.4332661E2,-1.2470982E2,3.218332E1,-9.55741E0,-4.8355747E1,-9.524689E0,8.607563E1,-3.1044744E1,2.446908E1,-3.396808E1,-5.5602596E1,-5.511189E1,7.8419313E0,8.569737E1,-1.5496241E1,-6.0033688E1,3.952687E1,4.499121E1,4.6395508E1,-2.097412E0,-2.2025112E1,-1.3379737E1,-3.112427E-1,2.219008E2,2.120324E1,-1.2396689E2,2.369906E1,5.672644E0,-3.2353485E1,5.548213E0,2.3229834E1,-1.545337E0,1.9125977E-1,7.70668E1,7.0437016E0,-1.1421181E1,2.5774721E1,-3.2225282E0,-4.333907E1,1.4553038E1,-5.5991695E1],"categories":[],"categories_nodes":[],"categories_segments":[],"categories_sizes":[],"default_left":[0,0,0,0,0,0,0,0,0,0,0,0,0,0,0,0,0,0,0,0,0,0,0,0,0,0,0,0,0,0,0,0,0,0,0,0,0,0,0,0,0,0,0,0,0,0,0,0,0,0,0],"id":13,"left_children":[1,3,5,7,9,-1,11,13,15,17,19,21,23,-1,-1,25,27,29,-1,31,-1,-1,-1,33,35,37,-1,-1,39,41,-1,-1,-1,43,45,47,49,-1,-1,-1,-1,-1,-1,-1,-1,-1,-1,-1,-1,-1,-1],"loss_changes":[8.1438445E4,1.0212777E5,1.714569E5,6.566921E4,6.999167E4,0E0,8.918216E4,4.303699E3,4.9255266E4,1.811371E4,3.9651688E4,4.040041E4,1.03389055E5,0E0,0E0,1.0781321E5,1.58603125E4,5.978839E3,0E0,1.3540762E3,0E0,0E0,0E0,1.6219711E5,9.647178E4,4.355697E4,0E0,0E0,4.6298516E3,3.6690933E1,0E0,0E0,0E0,3.5623438E4,5.697148E4,1.2372641E4,9.777196E4,0E0,0E0,0E0,0E0,0E0,0E0,0E0,0E0,0E0,0E0,0E0,0E0,0E0,0E0],"parents":[2147483647,0,0,1,1,2,2,3,3,4,4,6,6,7,7,8,8,9,9,10,10,11,11,12,12,15,15,16,16,17,17,19,19,23,23,24,24,25,25,28,28,29,29,33,33,34,34,35,35,36,36],"right_children":[2,4,6,8,10,-1,12,14,16,18,20,22,24,-1,-1,26,28,30,-1,32,-1,-1,-1,34,36,38,-1,-1,40,42,-1,-1,-1,44,46,48,50,-1,-1,-1,-1,-1,-1,-1,-1,-1,-1,-1,-1,-1,-1],"split_conditions":[5E1,3E1,5.1E1,1.718531E2,3E0,9.562764E1,6.530421E1,2.2E1,6.387618E2,3.277204E2,7E0,2.1E1,1.1E1,-9.55741E0,-4.8355747E1,2.3E1,8E0,1.7E1,2.446908E1,3.5670688E2,-5.5602596E1,-5.511189E1,7.8419313E0,2.531912E2,2.4739876E2,4.012595E2,3.952687E1,4.499121E1,8.595808E2,1E0,-2.2025112E1,-1.3379737E1,-3.112427E-1,6E0,7E0,1.2E1,9.7622565E2,5.672644E0,-3.2353485E1,5.548213E0,2.3229834E1,-1.545337E0,1.9125977E-1,7.70668E1,7.0437016E0,-1.1421181E1,2.5774721E1,-3.2225282E0,-4.333907E1,1.4553038E1,-5.5991695E1],"split_indices":[4,4,4,12,3,0,11,2,11,11,2,2,2,0,0,2,2,2,0,11,0,0,0,11,13,11,0,0,13,3,0,0,0,3,2,2,13,0,0,0,0,0,0,0,0,0,0,0,0,0,0],"split_type":[0,0,0,0,0,0,0,0,0,0,0,0,0,0,0,0,0,0,0,0,0,0,0,0,0,0,0,0,0,0,0,0,0,0,0,0,0,0,0,0,0,0,0,0,0,0,0,0,0,0,0],"sum_hessian":[8E1,3.7E1,4.3E1,2.3E1,1.4E1,1E0,4.2E1,2E0,2.1E1,5E0,9E0,3E0,3.9E1,1E0,1E0,1.3E1,8E0,4E0,1E0,3E0,6E0,2E0,1E0,1.8E1,2.1E1,1E1,3E0,2E0,6E0,3E0,1E0,2E0,1E0,5E0,1.3E1,5E0,1.6E1,4E0,6E0,4E0,2E0,1E0,2E0,4E0,1E0,7E0,6E0,1E0,4E0,1.5E1,1E0],"tree_param":{"num_deleted":"0","num_feature":"14","num_nodes":"51","size_leaf_vector":"1"}},{"base_weights":[2.4499712E0,1.0255853E2,-4.0824027E0,-7.2743073E0,8.1283485E1,-1.7589996E1,4.851467E1,-2.4511576E1,6.665625E0,-6.1037955E0,-1.4731192E2,-5.641758E1,7.682346E1,-1.3135254E0,-9.716684E0,-2.1191545E1,7.839523E1,3.5280838E1,-7.288239E1,1.358986E2,-1.0105067E1,1.5720894E1,-5.321773E1,7.9742837E0,9.737633E1,1.5417572E1,1.6811925E2,-5.6830322E1,7.113871E1,-1.2017912E1,1.5557971E1,-2.5981056E1,2.3419933E1,-2.305957E0,5.894385E0,1.0527924E1,4.059465E1,1.038274E1,-3.444832E0,8.402852E1,2.0192974E1,-2.0346296E1,-1.9301515E0,3.1870827E1,1.4159547E-1],"categories":[],"categories_nodes":[],"categories_segments":[],"categories_sizes":[],"default_left":[0,0,0,0,0,0,0,0,0,0,0,0,0,0,0,0,0,0,0,0,0,0,0,0,0,0,0,0,0,0,0,0,0,0,0,0,0,0,0,0,0,0,0,0,0],"id":14,"left_children":[1,3,5,7,-1,9,11,13,-1,15,17,-1,19,-1,-1,21,23,-1,-1,25,27,29,31,33,35,37,39,41,43,-1,-1,-1,-1,-1,-1,-1,-1,-1,-1,-1,-1,-1,-1,-1,-1],"loss_changes":[5.338835E4,9.444272E4,5.555879E4,2.5781357E3,0E0,9.1481586E4,1.2160095E5,3.3397656E2,0E0,7.560553E4,1.5523873E5,0E0,7.840299E4,0E0,0E0,5.9944867E4,1.1253484E4,0E0,0E0,3.2345812E4,3.0615791E4,5.0458023E4,1.2510252E5,6.9948145E2,1.179218E4,1.9461875E3,6.016425E4,2.3331055E3,7.390507E3,0E0,0E0,0E0,0E0,0E0,0E0,0E0,0E0,0E0,0E0,0E0,0E0,0E0,0E0,0E0,0E0],"parents":[2147483647,0,0,1,1,2,2,3,3,5,5,6,6,7,7,9,9,10,10,12,12,15,15,16,16,19,19,20,20,21,21,22,22,23,23,24,24,25,25,26,26,27,27,28,28],"right_children":[2,4,6,8,-1,10,12,14,-1,16,18,-1,20,-1,-1,22,24,-1,-1,26,28,30,32,34,36,38,40,42,44,-1,-1,-1,-1,-1,-1,-1,-1,-1,-1,-1,-1,-1,-1,-1,-1],"split_conditions":[3.3304626E1,3.3074593E1,8.5E1,2.1E1,8.1283485E1,7.9E1,6.530421E1,9E0,6.665625E0,8.7923474E2,2E0,-5.641758E1,8.155238E2,-1.3135254E0,-9.716684E0,1.2E1,1.6E1,3.5280838E1,-7.288239E1,8.7E1,8.620626E2,4.5722345E2,6E0,1.3E1,9.2211145E2,2.7E1,9.4E1,3E1,4E0,-1.2017912E1,1.5557971E1,-2.5981056E1,2.3419933E1,-2.305957E0,5.894385E0,1.0527924E1,4.059465E1,1.038274E1,-3.444832E0,8.402852E1,2.0192974E1,-2.0346296E1,-1.9301515E0,3.1870827E1,1.4159547E-1],"split_indices":[11,11,4,2,0,4,11,2,0,12,3,0,11,0,0,2,4,0,0,4,13,11,3,2,12,2,4,2,1,0,0,0,0,0,0,0,0,0,0,0,0,0,0,0,0],"split_type":[0,0,0,0,0,0,0,0,0,0,0,0,0,0,0,0,0,0,0,0,0,0,0,0,0,0,0,0,0,0,0,0,0,0,0,0,0,0,0,0,0,0,0,0,0],"sum_hessian":[8E1,4E0,7.6E1,3E0,1E0,6.1E1,1.5E1,2E0,1E0,5.7E1,4E0,1E0,1.4E1,1E0,1E0,4.9E1,8E0,1E0,3E0,8E0,6E0,2.3E1,2.6E1,2E0,6E0,2E0,6E0,4E0,2E0,9E0,1.4E1,2.1E1,5E0,1E0,1E0,3E0,3E0,1E0,1E0,2E0,4E0,3E0,1E0,1E0,1E0],"tree_param":{"num_deleted":"0","num_feature":"14","num_nodes":"45","size_leaf_vector":"1"}},{"base_weights":[3.6839345E0,2.4497961E1,-2.0513462E1,-9.171928E0,1.5645552E2,-7.3832054E1,1.3665387E1,6.165365E0,-1.3341162E2,2.4391484E2,3.770509E1,2.0361551E1,-1.2296502E2,-9.356099E1,3.978871E1,5.5955914E1,-3.843542E1,-5.2740345E1,-9.364563E-1,8.334077E1,1.6254602E1,-1.6568136E1,2.3822987E1,-1.5661951E1,6.9697205E1,-2.5500433E1,-1.8369133E2,-3.6672424E1,-4.8167286E1,4.7079895E1,2.5363592E1,-7.957678E1,9.335398E1,-1.1269903E2,-1.203341E0,-1.0413877E1,2.9582155E0,7.8864017E0,2.9988722E1,-2.4832962E1,9.512726E0,-6.021091E1,-1.4794923E1,-1.6643518E1,-3.573291E0,5.2487297E1,-4.2152313E1,-2.9878641E1,-2.9281082E0,-1.1053382E0,4.1067467E1,-1.4407044E1,-3.990928E1,-3.720522E1,5.809784E0,-1.8774781E0,8.523853E0,1.8345577E1,-9.022925E0,7.1902103E0,-2.43612E1],"categories":[],"categories_nodes":[],"categories_segments":[],"categories_sizes":[],"default_left":[0,0,0,0,0,0,0,0,0,0,0,0,0,0,0,0,0,0,0,0,0,0,0,0,0,0,0,0,0,0,0,0,0,0,0,0,0,0,0,0,0,0,0,0,0,0,0,0,0,0,0,0,0,0,0,0,0,0,0,0,0],"id":15,"left_children":[1,3,5,7,9,11,13,15,17,19,21,23,25,27,29,31,33,-1,-1,-1,-1,35,-1,-1,37,39,41,43,-1,-1,45,47,49,51,53,-1,-1,-1,-1,-1,55,-1,-1,-1,-1,57,59,-1,-1,-1,-1,-1,-1,-1,-1,-1,-1,-1,-1,-1,-1],"loss_changes":[4.12978E4,1.9692681E5,7.025894E4,6.9420555E4,8.427567E4,7.192392E4,7.09493E4,7.543371E4,2.1542969E4,1.7096156E4,1.2632963E4,2.51198E4,5.4502453E4,1.3168672E4,2.9816016E4,8.8527375E4,4.963418E4,0E0,0E0,0E0,0E0,1.7809321E3,0E0,0E0,2.6273398E3,1.0814517E4,3.8177188E3,1.2018511E3,0E0,0E0,3.7006805E4,4.6184414E3,5.5427008E4,1.5012578E3,3.5242285E4,0E0,0E0,0E0,0E0,0E0,1.3701088E3,0E0,0E0,0E0,0E0,1.1854605E4,1.7438754E4,0E0,0E0,0E0,0E0,0E0,0E0,0E0,0E0,0E0,0E0,0E0,0E0,0E0,0E0],"parents":[2147483647,0,0,1,1,2,2,3,3,4,4,5,5,6,6,7,7,8,8,9,9,10,10,11,11,12,12,13,13,14,14,15,15,16,16,21,21,24,24,25,25,26,26,27,27,30,30,31,31,32,32,33,33,34,34,40,40,45,45,46,46],"right_children":[2,4,6,8,10,12,14,16,18,20,22,24,26,28,30,32,34,-1,-1,-1,-1,36,-1,-1,38,40,42,44,-1,-1,46,48,50,52,54,-1,-1,-1,-1,-1,56,-1,-1,-1,-1,58,60,-1,-1,-1,-1,-1,-1,-1,-1,-1,-1,-1,-1,-1,-1],"split_conditions":[5.2497046E2,4.174864E2,6.964824E2,4.0171353E2,4.518217E2,2E0,1.5E1,5.1730853E2,9E0,2E1,7E0,1E0,1.5E1,1.3E1,6.995751E2,7.086978E1,6.8976825E2,-5.2740345E1,-9.364563E-1,8.334077E1,1.6254602E1,3E0,2.3822987E1,-1.5661951E1,6.2E1,5.3053723E2,6E0,5E0,-4.8167286E1,4.7079895E1,5E0,1.8E1,1.5941446E2,2.277595E2,1E0,-1.0413877E1,2.9582155E0,7.8864017E0,2.9988722E1,-2.4832962E1,1E1,-6.021091E1,-1.4794923E1,-1.6643518E1,-3.573291E0,8.6E1,2E0,-2.9878641E1,-2.9281082E0,-1.1053382E0,4.1067467E1,-1.4407044E1,-3.990928E1,-3.720522E1,5.809784E0,-1.8774781E0,8.523853E0,1.8345577E1,-9.022925E0,7.1902103E0,-2.43612E1],"split_indices":[12,12,12,12,12,3,4,11,2,2,2,3,2,2,12,12,11,0,0,0,0,1,0,0,4,12,3,2,0,0,3,2,11,12,3,0,0,0,0,0,2,0,0,0,0,4,1,0,0,0,0,0,0,0,0,0,0,0,0,0,0],"split_type":[0,0,0,0,0,0,0,0,0,0,0,0,0,0,0,0,0,0,0,0,0,0,0,0,0,0,0,0,0,0,0,0,0,0,0,0,0,0,0,0,0,0,0,0,0,0,0,0,0,0,0,0,0,0,0,0,0,0,0,0,0],"sum_hessian":[8E1,4.3E1,3.7E1,3.5E1,8E0,1.4E1,2.3E1,3.2E1,3E0,4E0,4E0,5E0,9E0,4E0,1.9E1,1.5E1,1.7E1,2E0,1E0,3E0,1E0,2E0,2E0,2E0,3E0,4E0,5E0,3E0,1E0,1E0,1.8E1,3E0,1.2E1,5E0,1.2E1,1E0,1E0,2E0,1E0,1E0,3E0,4E0,1E0,1E0,2E0,1.3E1,5E0,2E0,1E0,4E0,8E0,2E0,3E0,1E0,1.1E1,2E0,1E0,1.2E1,1E0,2E0,3E0],"tree_param":{"num_deleted":"0","num_feature":"14","num_nodes":"61","size_leaf_vector":"1"}},{"base_weights":[1.1416911E0,-1.9974953E1,1.9352844E1,1.6920498E1,-4.4772877E1,5.6589848E1,1.1029291E1,3.6460983E1,-5.0816208E1,-6.685621E1,4.990402E0,-1.9113007E1,5.0109722E1,7.467163E0,5.3648727E1,1.0088929E0,-2.0999079E1,-8.91328E1,-1.4873097E1,5.906782E1,-6.3853973E1,3.603128E0,-9.164795E1,7.427595E1,-3.2410908E1,-4.348145E0,6.621332E0,5.97583E0,6.8543724E1,-3.177124E1,-1.0667198E2,-1.988574E1,8.666601E0,2.7522585E1,6.7044272E0,-3.162444E1,-4.4586306E0,-9.6825066E1,4.35342E1,-1.26543335E2,-1.4571452E1,8.928526E1,-2.0378166E1,-2.3777767E1,7.5723147E0,4.4439697E0,-1.7548462E0,3.7924805E-1,2.4524042E1,-1.2074683E1,-9.5072025E-1,-3.696912E1,-1.1399342E1,-3.059363E0,4.7796574E0,-2.8638794E0,5.880872E0,-4.5991985E1,-9.077293E0,3.2502357E1,3.0356464E0,-4.5836746E1,-7.1708865E0,1.1123291E0,-7.6694827E0,-5.8219852E0,3.6207825E1],"categories":[],"categories_nodes":[],"categories_segments":[],"categories_sizes":[],"default_left":[0,0,0,0,0,0,0,0,0,0,0,0,0,0,0,0,0,0,0,0,0,0,0,0,0,0,0,0,0,0,0,0,0,0,0,0,0,0,0,0,0,0,0,0,0,0,0,0,0,0,0,0,0,0,0,0,0,0,0,0,0,0,0,0,0,0,0],"id":16,"left_children":[1,3,5,7,9,-1,11,13,15,17,19,21,23,25,27,-1,-1,29,31,33,35,37,39,41,43,-1,-1,45,47,49,51,-1,53,-1,55,-1,-1,57,59,61,63,65,-1,-1,-1,-1,-1,-1,-1,-1,-1,-1,-1,-1,-1,-1,-1,-1,-1,-1,-1,-1,-1,-1,-1,-1,-1],"loss_changes":[3.1535807E4,3.552494E4,5.9915992E4,2.303054E4,2.5609242E4,0E0,5.161063E4,6.077795E3,4.3921816E3,1.720243E4,3.355512E4,4.152306E4,4.0297387E4,2.2441958E3,5.2710938E3,0E0,0E0,7.6777188E3,7.8359097E3,7.9395625E3,6.5778857E3,8.441931E4,1.4293766E4,3.808047E4,1.5505074E4,0E0,0E0,4.001651E2,5.2264395E3,8.4237134E2,4.4146094E3,0E0,8.477821E2,0E0,8.159621E2,0E0,0E0,1.792029E4,3.1386963E4,7.1234062E3,6.976458E2,5.013457E4,0E0,0E0,0E0,0E0,0E0,0E0,0E0,0E0,0E0,0E0,0E0,0E0,0E0,0E0,0E0,0E0,0E0,0E0,0E0,0E0,0E0,0E0,0E0,0E0,0E0],"parents":[2147483647,0,0,1,1,2,2,3,3,4,4,6,6,7,7,8,8,9,9,10,10,11,11,12,12,13,13,14,14,17,17,18,18,19,19,20,20,21,21,22,22,23,23,24,24,27,27,28,28,29,29,30,30,32,32,34,34,37,37,38,38,39,39,40,40,41,41],"right_children":[2,4,6,8,10,-1,12,14,16,18,20,22,24,26,28,-1,-1,30,32,34,36,38,40,42,44,-1,-1,46,48,50,52,-1,54,-1,56,-1,-1,58,60,62,64,66,-1,-1,-1,-1,-1,-1,-1,-1,-1,-1,-1,-1,-1,-1,-1,-1,-1,-1,-1,-1,-1,-1,-1,-1,-1],"split_conditions":[5E1,3.27988E2,5.1E1,4.2E1,6.387618E2,5.6589848E1,6.5917645E2,2.2E1,2E0,9.078756E2,2E1,4.7064896E2,9.7622565E2,4E0,1.6053882E2,1.0088929E0,-2.0999079E1,2E0,4E0,4E0,2E0,2.32627E2,2.1E1,9.402097E2,6.041178E2,-4.348145E0,6.621332E0,2E0,5.8534924E1,5E0,1.9E1,-1.988574E1,7E0,2.7522585E1,1E1,-3.162444E1,-4.4586306E0,4E0,2.531912E2,4E0,3E0,1E0,-2.0378166E1,-2.3777767E1,7.5723147E0,4.4439697E0,-1.7548462E0,3.7924805E-1,2.4524042E1,-1.2074683E1,-9.5072025E-1,-3.696912E1,-1.1399342E1,-3.059363E0,4.7796574E0,-2.8638794E0,5.880872E0,-4.5991985E1,-9.077293E0,3.2502357E1,3.0356464E0,-4.5836746E1,-7.1708865E0,1.1123291E0,-7.6694827E0,-5.8219852E0,3.6207825E1],"split_indices":[4,13,4,4,11,0,13,4,3,13,4,13,13,3,11,0,0,3,2,3,1,11,2,12,12,0,0,1,13,2,2,0,2,0,2,0,0,3,11,1,1,3,0,0,0,0,0,0,0,0,0,0,0,0,0,0,0,0,0,0,0,0,0,0,0,0,0],"split_type":[0,0,0,0,0,0,0,0,0,0,0,0,0,0,0,0,0,0,0,0,0,0,0,0,0,0,0,0,0,0,0,0,0,0,0,0,0,0,0,0,0,0,0,0,0,0,0,0,0,0,0,0,0,0,0,0,0,0,0,0,0,0,0,0,0,0,0],"sum_hessian":[8E1,3.7E1,4.3E1,1.5E1,2.2E1,1E0,4.2E1,1.2E1,3E0,1.5E1,7E0,2.4E1,1.8E1,5E0,7E0,1E0,2E0,1E1,5E0,4E0,3E0,1.9E1,5E0,1.4E1,4E0,2E0,3E0,2E0,5E0,3E0,7E0,1E0,4E0,2E0,2E0,1E0,2E0,5E0,1.4E1,3E0,2E0,1.3E1,1E0,2E0,2E0,1E0,1E0,1E0,4E0,2E0,1E0,5E0,2E0,1E0,3E0,1E0,1E0,2E0,3E0,4E0,1E1,2E0,1E0,1E0,1E0,3E0,1E1],"tree_param":{"num_deleted":"0","num_feature":"14","num_nodes":"67","size_leaf_vector":"1"}},{"base_weights":[-4.839308E-1,1.434261E1,-1.763877E1,-9.291042E0,1.072836E2,-5.0604694E1,3.6998825E0,3.8867882E-1,-8.682597E1,1.6243164E2,3.0678833E1,9.267985E0,-8.1467834E1,-6.791837E1,2.1419453E1,3.422316E1,-2.970801E1,-3.3896164E1,-1.2513428E0,5.584296E1,1.0137817E1,8.205841E0,1.808562E1,-1.1365161E1,4.231488E1,-2.0850422E1,-1.1840437E2,-2.590326E1,-3.5396824E1,3.458672E1,1.04111E1,-4.7955395E1,5.687632E1,3.2276778E0,-7.128108E1,4.3538456E0,1.2659098E0,3.5531495E0,2.0059204E1,-1.5562652E1,-1.2527466E-1,-4.1237595E1,-1.6059162E1,-1.2335779E1,-2.1374514E0,2.6532803E1,-2.8941385E1,-1.7219332E1,-2.9442399E0,9.5168024E-1,3.0736557E1,1.4762613E1,-6.0498896E0,-3.5454895E0,-3.1378527E1,-3.3064272E0,3.8760865E0,-1.630066E0,2.369934E0,2.566968E0,1.472251E1,4.4279056E0,-1.6344553E1],"categories":[],"categories_nodes":[],"categories_segments":[],"categories_sizes":[],"default_left":[0,0,0,0,0,0,0,0,0,0,0,0,0,0,0,0,0,0,0,0,0,0,0,0,0,0,0,0,0,0,0,0,0,0,0,0,0,0,0,0,0,0,0,0,0,0,0,0,0,0,0,0,0,0,0,0,0,0,0,0,0,0,0],"id":17,"left_children":[1,3,5,7,9,11,13,15,17,19,21,23,25,27,29,31,33,-1,-1,-1,-1,35,-1,-1,37,39,41,43,-1,-1,45,47,49,51,53,-1,55,-1,-1,-1,57,-1,-1,-1,-1,59,61,-1,-1,-1,-1,-1,-1,-1,-1,-1,-1,-1,-1,-1,-1,-1,-1],"loss_changes":[2.0855088E4,9.764432E4,2.691827E4,2.7052342E4,3.303821E4,2.8472926E4,3.1911848E4,3.4620797E4,8.178123E3,8.960844E3,2.8320483E3,1.0952387E4,1.9921195E4,7.4623906E3,1.9466707E4,3.2513186E4,2.487635E4,0E0,0E0,0E0,0E0,1.5670801E2,0E0,0E0,2.2002256E3,3.2084983E3,5.8515625E1,8.4996216E2,0E0,0E0,1.2822047E4,8.772676E2,3.1495996E4,1.2824828E4,1.4611414E4,0E0,5.7200366E2,0E0,0E0,0E0,2.1332077E2,0E0,0E0,0E0,0E0,5.2532314E3,7.501006E3,0E0,0E0,0E0,0E0,0E0,0E0,0E0,0E0,0E0,0E0,0E0,0E0,0E0,0E0,0E0,0E0],"parents":[2147483647,0,0,1,1,2,2,3,3,4,4,5,5,6,6,7,7,8,8,9,9,10,10,11,11,12,12,13,13,14,14,15,15,16,16,21,21,24,24,25,25,26,26,27,27,30,30,31,31,32,32,33,33,34,34,36,36,40,40,45,45,46,46],"right_children":[2,4,6,8,10,12,14,16,18,20,22,24,26,28,30,32,34,-1,-1,-1,-1,36,-1,-1,38,40,42,44,-1,-1,46,48,50,52,54,-1,56,-1,-1,-1,58,-1,-1,-1,-1,60,62,-1,-1,-1,-1,-1,-1,-1,-1,-1,-1,-1,-1,-1,-1,-1,-1],"split_conditions":[5.2497046E2,4.174864E2,6.964824E2,4.0171353E2,4.518217E2,2E0,1.5E1,5.1730853E2,9E0,2E1,2.1E1,1E0,1.5E1,1.3E1,6.995751E2,7.086978E1,1.2E1,-3.3896164E1,-1.2513428E0,5.584296E1,1.0137817E1,2E0,1.808562E1,-1.1365161E1,6.2E1,5.3053723E2,2.5E1,5E0,-3.5396824E1,3.458672E1,5E0,1.8E1,5.2E1,3E0,1.6046765E2,4.3538456E0,3E0,3.5531495E0,2.0059204E1,-1.5562652E1,1E1,-4.1237595E1,-1.6059162E1,-1.2335779E1,-2.1374514E0,9.2211145E2,2E0,-1.7219332E1,-2.9442399E0,9.5168024E-1,3.0736557E1,1.4762613E1,-6.0498896E0,-3.5454895E0,-3.1378527E1,-3.3064272E0,3.8760865E0,-1.630066E0,2.369934E0,2.566968E0,1.472251E1,4.4279056E0,-1.6344553E1],"split_indices":[12,12,12,12,12,3,4,11,2,2,2,3,2,2,12,12,2,0,0,0,0,1,0,0,4,12,2,2,0,0,3,2,4,3,13,0,1,0,0,0,2,0,0,0,0,12,1,0,0,0,0,0,0,0,0,0,0,0,0,0,0,0,0],"split_type":[0,0,0,0,0,0,0,0,0,0,0,0,0,0,0,0,0,0,0,0,0,0,0,0,0,0,0,0,0,0,0,0,0,0,0,0,0,0,0,0,0,0,0,0,0,0,0,0,0,0,0,0,0,0,0,0,0,0,0,0,0,0,0],"sum_hessian":[8E1,4.3E1,3.7E1,3.5E1,8E0,1.4E1,2.3E1,3.2E1,3E0,4E0,4E0,5E0,9E0,4E0,1.9E1,1.5E1,1.7E1,2E0,1E0,3E0,1E0,3E0,1E0,2E0,3E0,4E0,5E0,3E0,1E0,1E0,1.8E1,3E0,1.2E1,1E1,7E0,1E0,2E0,2E0,1E0,1E0,3E0,3E0,2E0,1E0,2E0,1.3E1,5E0,2E0,1E0,6E0,6E0,3E0,7E0,3E0,4E0,1E0,1E0,2E0,1E0,8E0,5E0,2E0,3E0],"tree_param":{"num_deleted":"0","num_feature":"14","num_nodes":"63","size_leaf_vector":"1"}},{"base_weights":[-7.168626E-1,1.667197E1,-1.1831379E1,3.9724915E1,8.666784E0,-4.1215805E1,9.132099E0,1.51913805E1,-2.8060667E1,1.8830238E1,-4.955334E1,-2.6640245E1,3.4460342E1,5.330671E1,-3.682174E0,-3.292016E1,-7.574066E1,-1.1702249E1,-2.1759846E1,5.2910137E1,-1.12576065E1,8.824109E1,7.241089E-1,-1.8135347E1,6.227765E1,-7.463247E0,-4.6233635E1,-2.0590515E1,-1.1195564E2,-1.7653872E1,5.3126626E0,6.558029E1,-1.4869758E1,1.4255323E1,-5.2524715E1,4.5287113E0,2.9955309E1,-2.7050354E0,3.06709E0,4.6569824E0,-1.3984372E1,3.5501587E0,2.2544287E1,6.304688E-2,-6.8745394E0,-1.7864342E1,-4.411194E0,-7.5627203E0,-1.0102296E0,-4.0179527E1,-6.904102E0,-2.15198E0,5.0208178E0,1.0069982E1,3.110584E1,-2.351111E0,-1.944248E1],"categories":[],"categories_nodes":[],"categories_segments":[],"categories_sizes":[],"default_left":[0,0,0,0,0,0,0,0,0,0,0,0,0,0,0,0,0,0,0,0,0,0,0,0,0,0,0,0,0,0,0,0,0,0,0,0,0,0,0,0,0,0,0,0,0,0,0,0,0,0,0,0,0,0,0,0,0],"id":18,"left_children":[1,3,5,-1,7,9,11,13,-1,-1,15,17,19,21,23,25,27,29,-1,31,33,35,37,39,41,43,45,47,49,-1,51,53,-1,-1,55,-1,-1,-1,-1,-1,-1,-1,-1,-1,-1,-1,-1,-1,-1,-1,-1,-1,-1,-1,-1,-1,-1],"loss_changes":[1.5851999E4,2.8502156E4,3.1176373E4,0E0,2.2092633E4,2.1316586E4,2.8099549E4,2.1777436E4,0E0,0E0,6.2181797E3,8.0632627E3,1.5778402E4,1.8305508E4,2.114933E4,4.399828E3,1.1675609E4,9.136288E3,0E0,2.012957E4,1.7048787E4,3.587961E3,5.548536E2,1.7977896E4,1.7075537E3,7.162269E2,2.9025293E3,2.3329309E2,4.736129E3,0E0,1.4037375E3,1.1158508E4,0E0,0E0,1.6877881E3,0E0,0E0,0E0,0E0,0E0,0E0,0E0,0E0,0E0,0E0,0E0,0E0,0E0,0E0,0E0,0E0,0E0,0E0,0E0,0E0,0E0,0E0],"parents":[2147483647,0,0,1,1,2,2,4,4,5,5,6,6,7,7,10,10,11,11,12,12,13,13,14,14,15,15,16,16,17,17,19,19,20,20,21,21,22,22,23,23,24,24,25,25,26,26,27,27,28,28,30,30,31,31,34,34],"right_children":[2,4,6,-1,8,10,12,14,-1,-1,16,18,20,22,24,26,28,30,-1,32,34,36,38,40,42,44,46,48,50,-1,52,54,-1,-1,56,-1,-1,-1,-1,-1,-1,-1,-1,-1,-1,-1,-1,-1,-1,-1,-1,-1,-1,-1,-1,-1,-1],"split_conditions":[3.7824518E2,3.3304626E1,6.8493445E2,3.9724915E1,9.7E1,8E0,3.7E1,1.1E1,-2.8060667E1,1.8830238E1,6.4719666E2,2.1E1,9.0398395E2,4.461355E2,6E0,4.7064896E2,2.883985E2,5E0,-2.1759846E1,9.402097E2,5.199524E2,2E0,3E0,4.3E1,1.8E1,1.5E1,1.9E1,3E0,2.1E1,-1.7653872E1,1E1,1.7E1,-1.4869758E1,1.4255323E1,6.8E1,4.5287113E0,2.9955309E1,-2.7050354E0,3.06709E0,4.6569824E0,-1.3984372E1,3.5501587E0,2.2544287E1,6.304688E-2,-6.8745394E0,-1.7864342E1,-4.411194E0,-7.5627203E0,-1.0102296E0,-4.0179527E1,-6.904102E0,-2.15198E0,5.0208178E0,1.0069982E1,3.110584E1,-2.351111E0,-1.944248E1],"split_indices":[13,11,13,0,4,4,4,2,0,0,12,2,11,12,3,13,11,2,0,12,12,1,1,4,2,2,2,1,2,0,2,2,0,0,4,0,0,0,0,0,0,0,0,0,0,0,0,0,0,0,0,0,0,0,0,0,0],"split_type":[0,0,0,0,0,0,0,0,0,0,0,0,0,0,0,0,0,0,0,0,0,0,0,0,0,0,0,0,0,0,0,0,0,0,0,0,0,0,0,0,0,0,0,0,0,0,0,0,0,0,0,0,0,0,0,0,0],"sum_hessian":[8E1,3.1E1,4.9E1,1E0,3E1,2E1,2.9E1,2.9E1,1E0,1E0,1.9E1,1.2E1,1.7E1,9E0,2E1,1.3E1,6E0,1E1,2E0,1.2E1,5E0,5E0,4E0,1.7E1,3E0,5E0,8E0,3E0,3E0,2E0,8E0,1.1E1,1E0,2E0,3E0,1E0,4E0,2E0,2E0,8E0,9E0,1E0,2E0,4E0,1E0,5E0,3E0,2E0,1E0,2E0,1E0,4E0,4E0,7E0,4E0,1E0,2E0],"tree_param":{"num_deleted":"0","num_feature":"14","num_nodes":"57","size_leaf_vector":"1"}},{"base_weights":[-7.538076E-1,1.3647826E1,-9.955777E0,3.376619E1,6.8265333E0,-3.1989794E1,5.799894E0,1.2354432E1,-2.3851566E1,1.600569E1,-3.8924515E1,-2.1459312E1,2.5164883E1,4.0857625E0,6.5079346E1,-2.5121748E1,-6.09694E1,-9.535661E0,-1.740788E1,1.2490791E1,2.5311523E1,-3.7565243E0,5.0118042E1,2.4141993E1,2.8346193E0,-3.4218445E1,-1.9040039E0,-8.233963E1,-1.5087646E0,-1.412309E1,4.037625E0,4.521739E1,-1.1666907E1,-2.680089E0,1.7297535E1,5.5021E0,2.1817677E1,-1.2711517E1,-3.41868E0,2.0049868E0,-1.7164948E0,-3.214362E1,-9.0261965E0,-1.6354982E0,3.8158157E0,2.2857922E1,-6.4443607E0,-9.882184E0,4.8584766E0],"categories":[],"categories_nodes":[],"categories_segments":[],"categories_sizes":[],"default_left":[0,0,0,0,0,0,0,0,0,0,0,0,0,0,0,0,0,0,0,0,0,0,0,0,0,0,0,0,0,0,0,0,0,0,0,0,0,0,0,0,0,0,0,0,0,0,0,0,0],"id":19,"left_children":[1,3,5,-1,7,9,11,13,-1,-1,15,17,19,21,23,25,27,29,-1,31,-1,33,35,-1,-1,37,39,41,-1,-1,43,45,47,-1,-1,-1,-1,-1,-1,-1,-1,-1,-1,-1,-1,-1,-1,-1,-1],"loss_changes":[1.087027E4,2.0821012E4,1.7543574E4,0E0,1.5776471E4,1.4505004E4,1.6376249E4,1.2813048E4,0E0,0E0,4.553951E3,5.1148315E3,1.2453208E4,9.935225E3,2.6651309E3,2.8917148E3,7.95408E3,5.7952266E3,0E0,1.3177137E4,0E0,8.145942E3,1.5398525E3,0E0,0E0,1.377958E3,2.0215561E2,3.2570781E3,0E0,0E0,8.10795E2,1.6098955E4,6.460715E3,0E0,0E0,0E0,0E0,0E0,0E0,0E0,0E0,0E0,0E0,0E0,0E0,0E0,0E0,0E0,0E0],"parents":[2147483647,0,0,1,1,2,2,4,4,5,5,6,6,7,7,10,10,11,11,12,12,13,13,14,14,15,15,16,16,17,17,19,19,21,21,22,22,25,25,26,26,27,27,30,30,31,31,32,32],"right_children":[2,4,6,-1,8,10,12,14,-1,-1,16,18,20,22,24,26,28,30,-1,32,-1,34,36,-1,-1,38,40,42,-1,-1,44,46,48,-1,-1,-1,-1,-1,-1,-1,-1,-1,-1,-1,-1,-1,-1,-1,-1],"split_conditions":[3.7824518E2,3.3304626E1,6.8493445E2,3.376619E1,9.7E1,8E0,3.7E1,4E0,-2.3851566E1,1.600569E1,6.4719666E2,2.1E1,2.5E1,6E0,6E0,6.4E1,8.7923474E2,5E0,-1.740788E1,5.1730853E2,2.5311523E1,9.48861E2,2E0,2.4141993E1,2.8346193E0,2.1E1,4E0,2.1E1,-1.5087646E0,-1.412309E1,1E1,1.8E1,6.041178E2,-2.680089E0,1.7297535E1,5.5021E0,2.1817677E1,-1.2711517E1,-3.41868E0,2.0049868E0,-1.7164948E0,-3.214362E1,-9.0261965E0,-1.6354982E0,3.8158157E0,2.2857922E1,-6.4443607E0,-9.882184E0,4.8584766E0],"split_indices":[13,11,13,0,4,4,4,1,0,0,12,2,2,3,3,4,12,2,0,11,0,12,1,0,0,2,1,2,0,0,2,2,12,0,0,0,0,0,0,0,0,0,0,0,0,0,0,0,0],"split_type":[0,0,0,0,0,0,0,0,0,0,0,0,0,0,0,0,0,0,0,0,0,0,0,0,0,0,0,0,0,0,0,0,0,0,0,0,0,0,0,0,0,0,0,0,0,0,0,0,0],"sum_hessian":[8E1,3.1E1,4.9E1,1E0,3E1,2E1,2.9E1,2.9E1,1E0,1E0,1.9E1,1.2E1,1.7E1,2.6E1,3E0,1.3E1,6E0,1E1,2E0,1.5E1,2E0,2.3E1,3E0,2E0,1E0,9E0,4E0,4E0,2E0,2E0,8E0,6E0,9E0,2.2E1,1E0,2E0,1E0,6E0,3E0,1E0,3E0,2E0,2E0,4E0,4E0,4E0,2E0,5E0,4E0],"tree_param":{"num_deleted":"0","num_feature":"14","num_nodes":"49","size_leaf_vector":"1"}},{"base_weights":[1.1410277E-2,1.184393E1,-7.9576626E0,1.6437767E1,-2.0273832E1,-1.991906E1,1.0382317E1,2.9401558E1,-7.6186776E0,1.3604847E1,-2.3733475E1,2.575994E1,-2.1856117E1,2.4989269E0,5.874456E1,3.07948E1,-2.3844814E1,-3.250597E1,3.3575745E0,4.2890626E-1,2.1381006E1,-3.9498444E1,4.4499393E0,1.8149704E1,-2.3042103E1,7.9489334E1,2.2101917E1,1.2479005E0,1.1485987E1,-5.5758682E1,1.4052328E0,-4.6741843E0,-4.807598E1,-1.6101877E1,2.093606E1,-6.563965E0,5.6800785E0,-3.2780275E0,-1.6471195E1,-1.2033692E-1,8.808127E0,6.57251E-1,-1.2178303E1,3.3566586E1,2.9381561E0,9.3675387E-1,1.470293E1,-1.9384828E0,-2.1011152E1,-4.2106204E0,2.190132E0,-1.2997025E1,3.7672539E0,-8.379706E0,-2.7435589E1,-9.076037E0,-1.3171655E0,-4.1795106E0,3.1078494E0],"categories":[],"categories_nodes":[],"categories_segments":[],"categories_sizes":[],"default_left":[0,0,0,0,0,0,0,0,0,0,0,0,0,0,0,0,0,0,0,0,0,0,0,0,0,0,0,0,0,0,0,0,0,0,0,0,0,0,0,0,0,0,0,0,0,0,0,0,0,0,0,0,0,0,0,0,0,0,0],"id":20,"left_children":[1,3,5,7,-1,9,11,13,15,-1,17,19,21,23,25,27,29,31,33,35,-1,37,-1,39,41,43,45,-1,-1,47,49,51,53,55,-1,57,-1,-1,-1,-1,-1,-1,-1,-1,-1,-1,-1,-1,-1,-1,-1,-1,-1,-1,-1,-1,-1,-1,-1],"loss_changes":[7.732081E3,1.3151171E4,1.0956022E4,1.0203608E4,0E0,8.545141E3,1.0478021E4,1.6430684E4,8.213924E3,0E0,7.001168E3,1.6108875E4,5.11687E3,5.215051E3,5.8445664E3,6.3892285E2,7.330794E3,9.308793E3,1.1465119E4,1.4182885E3,0E0,1.6008892E3,0E0,1.6755225E3,2.3034082E3,1.245268E4,2.400441E3,0E0,0E0,2.362998E3,6.4861896E2,6.5379614E3,9.678023E3,1.0273073E3,0E0,1.1418263E3,0E0,0E0,0E0,0E0,0E0,0E0,0E0,0E0,0E0,0E0,0E0,0E0,0E0,0E0,0E0,0E0,0E0,0E0,0E0,0E0,0E0,0E0,0E0],"parents":[2147483647,0,0,1,1,2,2,3,3,5,5,6,6,7,7,8,8,10,10,11,11,12,12,13,13,14,14,15,15,16,16,17,17,18,18,19,19,21,21,23,23,24,24,25,25,26,26,29,29,30,30,31,31,32,32,33,33,35,35],"right_children":[2,4,6,8,-1,10,12,14,16,-1,18,20,22,24,26,28,30,32,34,36,-1,38,-1,40,42,44,46,-1,-1,48,50,52,54,56,-1,58,-1,-1,-1,-1,-1,-1,-1,-1,-1,-1,-1,-1,-1,-1,-1,-1,-1,-1,-1,-1,-1,-1,-1],"split_conditions":[3.8033517E2,9.7E1,8.620626E2,6.3606104E2,-2.0273832E1,8E0,9.7622565E2,4E0,1.1E1,1.3604847E1,8.2E1,3E0,6.041178E2,1.7E1,4.4929166E2,2E0,1.4E1,1E1,5E0,9.587409E2,2.1381006E1,2.8269965E2,4.4499393E0,4.1E1,4.9E1,2.2E1,1.7E1,1.2479005E0,1.1485987E1,1.2E1,8.9494545E1,6.5676196E2,6.184803E2,1E0,2.093606E1,4.9030536E2,5.6800785E0,-3.2780275E0,-1.6471195E1,-1.2033692E-1,8.808127E0,6.57251E-1,-1.2178303E1,3.3566586E1,2.9381561E0,9.3675387E-1,1.470293E1,-1.9384828E0,-2.1011152E1,-4.2106204E0,2.190132E0,-1.2997025E1,3.7672539E0,-8.379706E0,-2.7435589E1,-9.076037E0,-1.3171655E0,-4.1795106E0,3.1078494E0],"split_indices":[13,4,13,11,0,4,13,3,2,0,4,1,12,2,12,3,2,2,3,13,0,12,0,4,4,2,2,0,0,2,12,13,11,3,0,11,0,0,0,0,0,0,0,0,0,0,0,0,0,0,0,0,0,0,0,0,0,0,0],"split_type":[0,0,0,0,0,0,0,0,0,0,0,0,0,0,0,0,0,0,0,0,0,0,0,0,0,0,0,0,0,0,0,0,0,0,0,0,0,0,0,0,0,0,0,0,0,0,0,0,0,0,0,0,0,0,0,0,0,0,0],"sum_hessian":[8E1,3.2E1,4.8E1,3.1E1,1E0,2.9E1,1.9E1,2E1,1.1E1,1E0,2.8E1,1.3E1,6E0,1.1E1,9E0,3E0,8E0,2.1E1,7E0,9E0,4E0,4E0,2E0,7E0,4E0,5E0,4E0,1E0,2E0,3E0,5E0,8E0,1.3E1,6E0,1E0,7E0,2E0,2E0,2E0,3E0,4E0,2E0,2E0,3E0,2E0,3E0,1E0,1E0,2E0,1E0,4E0,2E0,6E0,1E1,3E0,2E0,4E0,5E0,2E0],"tree_param":{"num_deleted":"0","num_feature":"14","num_nodes":"59","size_leaf_vector":"1"}},{"base_weights":[8.9400865E-2,6.785832E0,-7.6667137E0,-3.246426E0,4.616088E1,-1.4824849E1,1.7045593E1,-5.675136E-2,-1.7232758E1,7.2069046E1,1.1020544E1,5.400287E0,-2.860829E1,-8.614856E0,3.9296925E1,1.2616533E1,-1.2726883E1,2.5041176E1,3.9694338E0,-5.20284E-1,5.6663575E0,-1.0892805E1,2.092191E1,-1.3326813E1,-5.6950108E1,5.694336E0,-6.015729E0,-1.8231608E0,2.019541E1,-2.7313561E0,4.3767536E1,-4.0644436E1,1.1371319E0,1.909076E0,-2.1432037E0,4.122986E0,-2.3185394E1,4.569275E0,9.61322E0,-2.4532677E1,9.509107E0,-1.9269743E1,-3.0807405E0,2.9972534E0,-4.3480226E-1,2.3327637E0,-3.153186E0,5.8563375E0,-4.4371085E0,-4.2675786E-2,1.97274E1,-1.4365855E1,-6.6535497E-1,4.915741E0,-5.8151855E0,-1.7432374E0,2.8113525E0,-8.553333E0,-1.0812378E0,-7.2971195E-1,2.3141847E0,-1.1647884E1,9.122681E-1,3.4743774E0,1.2801758E0],"categories":[],"categories_nodes":[],"categories_segments":[],"categories_sizes":[],"default_left":[0,0,0,0,0,0,0,0,0,0,0,0,0,0,0,0,0,0,0,0,0,0,0,0,0,0,0,0,0,0,0,0,0,0,0,0,0,0,0,0,0,0,0,0,0,0,0,0,0,0,0,0,0,0,0,0,0,0,0,0,0,0,0,0,0],"id":21,"left_children":[1,3,5,7,9,11,13,15,-1,17,19,21,23,25,27,29,31,-1,-1,33,-1,35,37,39,41,43,-1,45,-1,47,49,51,53,-1,-1,55,57,59,-1,61,63,-1,-1,-1,-1,-1,-1,-1,-1,-1,-1,-1,-1,-1,-1,-1,-1,-1,-1,-1,-1,-1,-1,-1,-1],"loss_changes":[4.2590264E3,1.7530768E4,6.974671E3,6.219985E3,7.3995527E3,8.517652E3,5.4773496E3,5.780595E3,0E0,2.2497598E3,4.6380365E2,3.5155364E3,7.036924E3,9.324973E2,5.883884E3,8.725385E3,7.013106E3,0E0,0E0,1.8225221E2,0E0,1.3876737E3,1.126718E3,3.5599348E3,1.3800742E3,1.0655874E2,0E0,3.3190314E2,0E0,3.7771807E3,5.8029307E3,1.5634492E3,4.385572E3,0E0,0E0,2.6299127E2,3.143794E2,1.0683479E2,0E0,3.6651978E3,4.8894043E0,0E0,0E0,0E0,0E0,0E0,0E0,0E0,0E0,0E0,0E0,0E0,0E0,0E0,0E0,0E0,0E0,0E0,0E0,0E0,0E0,0E0,0E0,0E0,0E0],"parents":[2147483647,0,0,1,1,2,2,3,3,4,4,5,5,6,6,7,7,9,9,10,10,11,11,12,12,13,13,14,14,15,15,16,16,19,19,21,21,22,22,23,23,24,24,25,25,27,27,29,29,30,30,31,31,32,32,35,35,36,36,37,37,39,39,40,40],"right_children":[2,4,6,8,10,12,14,16,-1,18,20,22,24,26,28,30,32,-1,-1,34,-1,36,38,40,42,44,-1,46,-1,48,50,52,54,-1,-1,56,58,60,-1,62,64,-1,-1,-1,-1,-1,-1,-1,-1,-1,-1,-1,-1,-1,-1,-1,-1,-1,-1,-1,-1,-1,-1,-1,-1],"split_conditions":[5.2497046E2,4.174864E2,2.6E1,9.8E1,4.518217E2,2E0,3.9902533E2,5.1730853E2,-1.7232758E1,2E1,3E0,9E0,1.8E1,5E0,2E0,4.1485687E2,6.8976825E2,2.5041176E1,3.9694338E0,2E0,5.6663575E0,3E0,4.8E1,3E0,2.5E1,2E0,-6.015729E0,2E0,2.019541E1,2.3841328E2,2E0,1.7E1,1.1E1,1.909076E0,-2.1432037E0,3E0,6E0,1.3E1,9.61322E0,1.5E1,4E0,-1.9269743E1,-3.0807405E0,2.9972534E0,-4.3480226E-1,2.3327637E0,-3.153186E0,5.8563375E0,-4.4371085E0,-4.2675786E-2,1.97274E1,-1.4365855E1,-6.6535497E-1,4.915741E0,-5.8151855E0,-1.7432374E0,2.8113525E0,-8.553333E0,-1.0812378E0,-7.2971195E-1,2.3141847E0,-1.1647884E1,9.122681E-1,3.4743774E0,1.2801758E0],"split_indices":[12,12,2,4,12,3,11,11,0,2,1,2,2,3,3,11,11,0,0,1,0,2,4,1,2,1,0,1,0,13,1,2,2,0,0,1,2,2,0,2,1,0,0,0,0,0,0,0,0,0,0,0,0,0,0,0,0,0,0,0,0,0,0,0,0],"split_type":[0,0,0,0,0,0,0,0,0,0,0,0,0,0,0,0,0,0,0,0,0,0,0,0,0,0,0,0,0,0,0,0,0,0,0,0,0,0,0,0,0,0,0,0,0,0,0,0,0,0,0,0,0,0,0,0,0,0,0,0,0,0,0,0,0],"sum_hessian":[8E1,4.3E1,3.7E1,3.5E1,8E0,2.9E1,8E0,3.4E1,1E0,4E0,4E0,1.2E1,1.7E1,4E0,4E0,1.7E1,1.7E1,3E0,1E0,2E0,2E0,6E0,6E0,1.2E1,5E0,2E0,2E0,2E0,2E0,1.2E1,5E0,5E0,1.2E1,1E0,1E0,3E0,3E0,3E0,3E0,8E0,4E0,4E0,1E0,1E0,1E0,1E0,1E0,4E0,8E0,2E0,3E0,4E0,1E0,7E0,5E0,1E0,2E0,2E0,1E0,1E0,2E0,5E0,3E0,2E0,2E0],"tree_param":{"num_deleted":"0","num_feature":"14","num_nodes":"65","size_leaf_vector":"1"}},{"base_weights":[2.1819824E-1,7.8021593E0,-4.8938203E0,1.109761E1,-1.4647843E1,-1.6851E1,3.2407598E0,3.856389E0,3.2339226E1,7.807947E0,-2.0477524E1,1.4766358E1,-4.2054802E-2,2.7471087E1,-5.0467305E0,5.681118E1,-6.3355255E0,-1.2291187E1,-3.2755363E1,4.5135303E0,-2.281157E1,1.8299316E0,3.479966E1,1.0477594E1,-2.3460157E1,1.630005E0,2.0489191E1,-2.9602356E0,6.390381E-1,-2.2512014E1,-3.144749E-1,-4.338905E1,-4.114095E0,-9.089148E0,1.27331085E1,-3.7482235E1,5.3806643E0,1.791211E0,1.2154267E1,-3.9535522E-1,6.1580324E0,-1.1286461E0,-9.80464E0,-9.077395E0,-6.2941897E-1,-1.8476212E0,1.6825219E0,-1.7136017E1,-4.5585084E0,-1.4817628E0,-3.695801E-1,1.9823103E0,-1.0285904E1,2.5579226E-1,1.1609882E1,-1.2952007E1,-3.0613313E0],"categories":[],"categories_nodes":[],"categories_segments":[],"categories_sizes":[],"default_left":[0,0,0,0,0,0,0,0,0,0,0,0,0,0,0,0,0,0,0,0,0,0,0,0,0,0,0,0,0,0,0,0,0,0,0,0,0,0,0,0,0,0,0,0,0,0,0,0,0,0,0,0,0,0,0,0,0],"id":22,"left_children":[1,3,5,7,-1,9,11,13,15,-1,17,-1,19,21,23,25,27,29,31,33,35,-1,37,39,41,-1,-1,-1,-1,43,45,47,49,51,53,55,-1,-1,-1,-1,-1,-1,-1,-1,-1,-1,-1,-1,-1,-1,-1,-1,-1,-1,-1,-1,-1],"loss_changes":[3.1784995E3,6.7001753E3,4.8206753E3,4.797375E3,0E0,3.6428838E3,4.530427E3,5.3947515E3,7.931503E3,0E0,1.5070972E3,0E0,3.111086E3,8.840781E2,5.677071E3,2.5795771E3,1.4061919E2,1.5842754E3,1.9534302E3,2.91094E3,3.6612012E3,0E0,5.818262E2,1.330931E3,1.511935E3,0E0,0E0,0E0,0E0,1.0433975E3,2.768448E2,1.0677207E3,1.0495605E0,4.18172E3,4.9029106E3,1.8040527E2,0E0,0E0,0E0,0E0,0E0,0E0,0E0,0E0,0E0,0E0,0E0,0E0,0E0,0E0,0E0,0E0,0E0,0E0,0E0,0E0,0E0],"parents":[2147483647,0,0,1,1,2,2,3,3,5,5,6,6,7,7,8,8,10,10,12,12,13,13,14,14,15,15,16,16,17,17,18,18,19,19,20,20,22,22,23,23,24,24,29,29,30,30,31,31,32,32,33,33,34,34,35,35],"right_children":[2,4,6,8,-1,10,12,14,16,-1,18,-1,20,22,24,26,28,30,32,34,36,-1,38,40,42,-1,-1,-1,-1,44,46,48,50,52,54,56,-1,-1,-1,-1,-1,-1,-1,-1,-1,-1,-1,-1,-1,-1,-1,-1,-1,-1,-1,-1,-1],"split_conditions":[3.8033517E2,9.7E1,6.8493445E2,3.3549817E2,-1.4647843E1,8E0,6.9646313E2,1.1E1,4.4929166E2,7.807947E0,6.4719666E2,1.4766358E1,2.4E1,1.154843E2,4.3E1,9E0,3E0,1.3E1,8.7923474E2,8.863047E2,8.5E1,1.8299316E0,2E0,2.2E1,3.4169812E2,1.630005E0,2.0489191E1,-2.9602356E0,6.390381E-1,9.3E1,1.5941446E2,2.1E1,3E0,6.9E1,6.6E1,2.6E1,5.3806643E0,1.791211E0,1.2154267E1,-3.9535522E-1,6.1580324E0,-1.1286461E0,-9.80464E0,-9.077395E0,-6.2941897E-1,-1.8476212E0,1.6825219E0,-1.7136017E1,-4.5585084E0,-1.4817628E0,-3.695801E-1,1.9823103E0,-1.0285904E1,2.5579226E-1,1.1609882E1,-1.2952007E1,-3.0613313E0],"split_indices":[13,4,13,13,0,4,13,2,12,0,12,0,2,11,4,2,1,2,12,13,4,0,1,2,12,0,0,0,0,4,11,2,1,4,4,2,0,0,0,0,0,0,0,0,0,0,0,0,0,0,0,0,0,0,0,0,0],"split_type":[0,0,0,0,0,0,0,0,0,0,0,0,0,0,0,0,0,0,0,0,0,0,0,0,0,0,0,0,0,0,0,0,0,0,0,0,0,0,0,0,0,0,0,0,0,0,0,0,0,0,0,0,0,0,0,0,0],"sum_hessian":[8E1,3.2E1,4.8E1,3.1E1,1E0,1.9E1,2.9E1,2.4E1,7E0,1E0,1.8E1,1E0,2.8E1,6E0,1.8E1,4E0,3E0,1.2E1,6E0,2.4E1,4E0,2E0,4E0,1E1,8E0,1E0,3E0,2E0,1E0,6E0,6E0,4E0,2E0,9E0,1.5E1,3E0,1E0,1E0,3E0,5E0,5E0,3E0,5E0,4E0,2E0,3E0,3E0,2E0,2E0,1E0,1E0,6E0,3E0,1.1E1,4E0,2E0,1E0],"tree_param":{"num_deleted":"0","num_feature":"14","num_nodes":"57","size_leaf_vector":"1"}},{"base_weights":[1.2607352E-1,2.0865772E1,-1.2222974E0,-1.979065E0,1.683677E1,-3.2961934E0,1.4813381E1,1.3854859E0,-1.7152833E0,2.915994E0,-9.776856E0,-7.4198914E0,2.7166666E1,-2.5331558E1,5.3226604E0,-7.460563E-1,-2.4307684E1,1.6239625E0,-4.0505986E0,5.590332E0,1.40638685E1,1.0514649E0,-1.2450666E1,2.1437757E1,-4.6036002E-1,-7.5646424E0,1.213205E1,-1.612385E1,-1.0101523E1,-1.9964356E0,1.18903E1,8.27144E0,-6.042481E-3,-3.0618472E0,3.528075E0,1.9102845E0,-3.4735026E0,1.010144E1,-1.979004E-1,-7.204846E0,9.532761E-1,4.5735354E0,7.7709967E-1],"categories":[],"categories_nodes":[],"categories_segments":[],"categories_sizes":[],"default_left":[0,0,0,0,0,0,0,0,0,0,0,0,0,0,0,0,0,0,0,0,0,0,0,0,0,0,0,0,0,0,0,0,0,0,0,0,0,0,0,0,0,0,0],"id":23,"left_children":[1,3,5,7,-1,9,11,-1,-1,13,15,17,19,21,23,25,27,-1,-1,29,-1,-1,-1,31,33,35,37,-1,39,-1,41,-1,-1,-1,-1,-1,-1,-1,-1,-1,-1,-1,-1],"loss_changes":[2.2906536E3,4.138248E3,2.609565E3,1.2506355E2,0E0,2.8063865E3,2.6734595E3,0E0,0E0,2.5821992E3,4.4435146E3,3.85298E2,2.2899194E3,1.5443735E3,3.1784631E3,2.0236051E3,4.893783E3,0E0,0E0,3.8770276E2,0E0,0E0,0E0,1.185103E3,3.2166157E3,9.125246E2,2.2264214E3,0E0,1.924052E3,0E0,5.410919E1,0E0,0E0,0E0,0E0,0E0,0E0,0E0,0E0,0E0,0E0,0E0,0E0],"parents":[2147483647,0,0,1,1,2,2,3,3,5,5,6,6,9,9,10,10,11,11,12,12,13,13,14,14,15,15,16,16,19,19,23,23,24,24,25,25,26,26,28,28,30,30],"right_children":[2,4,6,8,-1,10,12,-1,-1,14,16,18,20,22,24,26,28,-1,-1,30,-1,-1,-1,32,34,36,38,-1,40,-1,42,-1,-1,-1,-1,-1,-1,-1,-1,-1,-1,-1,-1],"split_conditions":[3.3304626E1,3.3074593E1,2.8E1,9E0,1.683677E1,1.2E1,3.9902533E2,1.3854859E0,-1.7152833E0,6.530421E1,6.184803E2,4E0,3E0,3E0,3.374774E2,4.24089E2,7.2416766E2,1.6239625E0,-4.0505986E0,3E1,1.40638685E1,1.0514649E0,-1.2450666E1,1.1E1,7E0,2E0,4.569114E2,-1.612385E1,6.041178E2,-1.9964356E0,3.1E1,8.27144E0,-6.042481E-3,-3.0618472E0,3.528075E0,1.9102845E0,-3.4735026E0,1.010144E1,-1.979004E-1,-7.204846E0,9.532761E-1,4.5735354E0,7.7709967E-1],"split_indices":[11,11,2,2,0,2,11,0,0,11,11,3,3,1,13,11,11,0,0,2,0,0,0,2,2,3,11,0,12,0,2,0,0,0,0,0,0,0,0,0,0,0,0],"split_type":[0,0,0,0,0,0,0,0,0,0,0,0,0,0,0,0,0,0,0,0,0,0,0,0,0,0,0,0,0,0,0,0,0,0,0,0,0,0,0,0,0,0,0],"sum_hessian":[8E1,4E0,7.6E1,3E0,1E0,6.8E1,8E0,1E0,2E0,3.5E1,3.3E1,3E0,5E0,2E0,3.3E1,2.1E1,1.2E1,1E0,2E0,3E0,2E0,1E0,1E0,8E0,2.5E1,1.4E1,7E0,3E0,9E0,1E0,2E0,6E0,2E0,1.4E1,1.1E1,3E0,1.1E1,2E0,5E0,4E0,5E0,1E0,1E0],"tree_param":{"num_deleted":"0","num_feature":"14","num_nodes":"43","size_leaf_vector":"1"}},{"base_weights":[2.709086E-1,1.2858018E0,-1.9587234E1,1.880597E1,-4.3540627E-1,-1.0583066E1,-7.7951664E-1,-1.4677887E0,3.4378235E1,-2.516639E0,1.1334762E1,1.1776612E0,-1.3722229E0,8.9373785E-1,1.3155469E1,-5.566672E0,5.8844285E0,2.7078247E-1,3.0629028E1,1.5562192E0,-1.412041E1,1.3777623E1,-1.0882699E1,-4.099927E0,7.1942544E0,1.2315772E1,-9.624024E-2,1.3704398E0,-4.8454013E0,-4.869306E0,4.21377E0,1.150763E0,9.810645E0,3.1554933E0,-5.1799693E0,5.1382813E0,-6.162964E-1],"categories":[],"categories_nodes":[],"categories_segments":[],"categories_sizes":[],"default_left":[0,0,0,0,0,0,0,0,0,0,0,0,0,0,0,0,0,0,0,0,0,0,0,0,0,0,0,0,0,0,0,0,0,0,0,0,0],"id":24,"left_children":[1,3,5,7,9,-1,-1,11,13,15,17,-1,-1,-1,-1,19,21,23,25,27,29,31,33,-1,35,-1,-1,-1,-1,-1,-1,-1,-1,-1,-1,-1,-1],"loss_changes":[1.6576506E3,2.3603445E3,9.745333E2,2.2604187E3,1.7922706E3,0E0,0E0,8.49686E1,1.0591772E3,1.6214158E3,2.339891E3,0E0,0E0,0E0,0E0,2.8246323E3,2.3998232E3,8.7027045E2,1.3035974E3,1.4604556E3,1.4763896E3,2.1322727E3,1.00134204E3,0E0,5.864016E2,0E0,0E0,0E0,0E0,0E0,0E0,0E0,0E0,0E0,0E0,0E0,0E0],"parents":[2147483647,0,0,1,1,2,2,3,3,4,4,7,7,8,8,9,9,10,10,15,15,16,16,17,17,18,18,19,19,20,20,21,21,22,22,24,24],"right_children":[2,4,6,8,10,-1,-1,12,14,16,18,-1,-1,-1,-1,20,22,24,26,28,30,32,34,-1,36,-1,-1,-1,-1,-1,-1,-1,-1,-1,-1,-1,-1],"split_conditions":[9.8E1,6.807407E1,9E0,3.3074593E1,8.7E1,-1.0583066E1,-7.7951664E-1,9E0,5E0,8.863047E2,5E0,1.1776612E0,-1.3722229E0,8.9373785E-1,1.3155469E1,3.8913467E2,9.7622565E2,1E0,9.4E1,7.2E1,9.9034503E2,3E0,2E0,-4.099927E0,2E0,1.2315772E1,-9.624024E-2,1.3704398E0,-4.8454013E0,-4.869306E0,4.21377E0,1.150763E0,9.810645E0,3.1554933E0,-5.1799693E0,5.1382813E0,-6.162964E-1],"split_indices":[4,11,2,11,4,0,0,2,2,13,3,0,0,0,0,13,13,3,4,4,11,1,2,0,3,0,0,0,0,0,0,0,0,0,0,0,0],"split_type":[0,0,0,0,0,0,0,0,0,0,0,0,0,0,0,0,0,0,0,0,0,0,0,0,0,0,0,0,0,0,0,0,0,0,0,0,0],"sum_hessian":[8E1,7.7E1,3E0,6E0,7.1E1,1E0,2E0,3E0,3E0,6.1E1,1E1,1E0,2E0,1E0,2E0,4.5E1,1.6E1,7E0,3E0,2.5E1,2E1,1.1E1,5E0,2E0,5E0,2E0,1E0,2.2E1,3E0,1.9E1,1E0,8E0,3E0,1E0,4E0,2E0,3E0],"tree_param":{"num_deleted":"0","num_feature":"14","num_nodes":"37","size_leaf_vector":"1"}},{"base_weights":[4.35814E-1,1.5589722E1,-5.538659E-1,-1.0760803E0,1.233794E1,-2.565948E0,8.683785E0,1.001001E0,-1.0977662E0,-7.1392745E-1,-2.0349825E1,-1.084647E0,1.614569E1,-1.871131E1,9.351787E-1,-9.365087E0,9.229533E-1,1.5345155E0,-7.0131836E0,5.056885E0,9.882422E0,4.4358726E0,-1.0686417E1,-1.2718908E1,2.255478E0,2.274463E0,-1.859134E0,-2.8686218E0,9.502259E-2,-1.0820069E0,7.5109377E0,-1.0530763E0,3.049219E0,7.624512E-2,-4.8077135E0,-4.0052143E-1,3.5520449E0,1.2582276E0,3.116748E0],"categories":[],"categories_nodes":[],"categories_segments":[],"categories_sizes":[],"default_left":[0,0,0,0,0,0,0,0,0,0,0,0,0,0,0,0,0,0,0,0,0,0,0,0,0,0,0,0,0,0,0,0,0,0,0,0,0,0,0],"id":25,"left_children":[1,3,5,7,-1,9,11,-1,-1,13,15,17,19,21,23,-1,25,-1,27,29,-1,31,-1,33,35,-1,-1,-1,-1,-1,37,-1,-1,-1,-1,-1,-1,-1,-1],"loss_changes":[1.2234335E3,2.172207E3,1.4534745E3,5.7804623E1,0E0,2.0933823E3,1.037988E3,0E0,0E0,1.7685945E3,1.4158557E3,2.9315875E2,1.3233748E3,2.1151155E3,1.02019855E3,0E0,1.8921248E2,0E0,7.776138E1,1.546548E2,0E0,1.722292E2,0E0,2.185697E2,1.7709333E3,0E0,0E0,0E0,0E0,0E0,4.160034E0,0E0,0E0,0E0,0E0,0E0,0E0,0E0,0E0],"parents":[2147483647,0,0,1,1,2,2,3,3,5,5,6,6,9,9,10,10,11,11,12,12,13,13,14,14,16,16,18,18,19,19,21,21,23,23,24,24,30,30],"right_children":[2,4,6,8,-1,10,12,-1,-1,14,16,18,20,22,24,-1,26,-1,28,30,-1,32,-1,34,36,-1,-1,-1,-1,-1,38,-1,-1,-1,-1,-1,-1,-1,-1],"split_conditions":[3.3304626E1,3.3074593E1,2.6E1,9E0,1.233794E1,2.4E1,3.9902533E2,1.001001E0,-1.0977662E0,1.3346147E2,3E0,5E0,3E0,2E0,7E0,-9.365087E0,2E0,1.5345155E0,3E0,1E0,9.882422E0,2E0,-1.0686417E1,3E0,8.620626E2,2.274463E0,-1.859134E0,-2.8686218E0,9.502259E-2,-1.0820069E0,9.249669E2,-1.0530763E0,3.049219E0,7.624512E-2,-4.8077135E0,-4.0052143E-1,3.5520449E0,1.2582276E0,3.116748E0],"split_indices":[11,11,2,2,0,2,11,0,0,13,3,3,3,3,4,0,1,0,1,3,0,1,0,2,13,0,0,0,0,0,11,0,0,0,0,0,0,0,0],"split_type":[0,0,0,0,0,0,0,0,0,0,0,0,0,0,0,0,0,0,0,0,0,0,0,0,0,0,0,0,0,0,0,0,0,0,0,0,0,0,0],"sum_hessian":[8E1,4E0,7.6E1,3E0,1E0,6.3E1,1.3E1,1E0,2E0,5.8E1,5E0,6E0,7E0,4E0,5.4E1,3E0,2E0,3E0,3E0,5E0,2E0,2E0,2E0,4E0,5E1,1E0,1E0,2E0,1E0,1E0,4E0,1E0,1E0,1E0,3E0,3.7E1,1.3E1,3E0,1E0],"tree_param":{"num_deleted":"0","num_feature":"14","num_nodes":"39","size_leaf_vector":"1"}},{"base_weights":[3.6628643E-1,1.1325777E0,-1.4667965E1,1.366598E1,-1.0167784E-1,-7.3926435E0,-9.3875736E-1,-7.774658E-1,2.4692932E1,-1.7687895E0,6.93127E0,8.508545E-1,-2.927409E0,8.1976324E-1,9.330665E0,3.770951E0,-7.6295886E0,-9.3621826E-1,1.2948914E1,-1.1091797E0,-2.081543E-1,1.31545E1,-6.4826965E-2,1.5468396E-1,-2.0381552E1,1.18927E0,-5.6026154E0,4.088623E0,7.905957E0,5.301275E0,-5.3059083E-1,-1.4956529E0,2.443054E0,-1.7008492E0,2.6614861E0,-8.605532E0,3.9628288E-1,-2.2948914E0,8.0767825E-2,-9.197022E-1,1.8397852E0],"categories":[],"categories_nodes":[],"categories_segments":[],"categories_sizes":[],"default_left":[0,0,0,0,0,0,0,0,0,0,0,0,0,0,0,0,0,0,0,0,0,0,0,0,0,0,0,0,0,0,0,0,0,0,0,0,0,0,0,0,0],"id":26,"left_children":[1,3,5,7,9,-1,-1,11,13,15,17,-1,19,-1,-1,21,23,25,27,-1,-1,29,31,33,35,-1,37,39,-1,-1,-1,-1,-1,-1,-1,-1,-1,-1,-1,-1,-1],"loss_changes":[9.497825E2,1.2080045E3,3.8324915E2,1.1340681E3,8.564391E2,0E0,0E0,3.9379208E1,4.7801294E2,1.9443418E3,6.749353E2,0E0,2.5932274E0,0E0,0E0,1.1166423E3,2.8818306E3,1.8228226E2,8.4237805E2,0E0,0E0,6.378452E2,9.695841E2,1.01490894E3,2.0201772E3,0E0,5.013865E1,1.0654064E2,0E0,0E0,0E0,0E0,0E0,0E0,0E0,0E0,0E0,0E0,0E0,0E0,0E0],"parents":[2147483647,0,0,1,1,2,2,3,3,4,4,7,7,8,8,9,9,10,10,12,12,15,15,16,16,17,17,18,18,21,21,22,22,23,23,24,24,26,26,27,27],"right_children":[2,4,6,8,10,-1,-1,12,14,16,18,-1,20,-1,-1,22,24,26,28,-1,-1,30,32,34,36,-1,38,40,-1,-1,-1,-1,-1,-1,-1,-1,-1,-1,-1,-1,-1],"split_conditions":[9.8E1,6.807407E1,9E0,3.3074593E1,2.6E1,-7.3926435E0,-9.3875736E-1,9E0,5E0,1.2E1,3.9902533E2,8.508545E-1,2.1E1,8.1976324E-1,9.330665E0,3.374774E2,6.184803E2,5E0,3E0,-1.1091797E0,-2.081543E-1,7.963915E2,7E0,4.24089E2,6.982485E2,1.18927E0,3E0,1E0,7.905957E0,5.301275E0,-5.3059083E-1,-1.4956529E0,2.443054E0,-1.7008492E0,2.6614861E0,-8.605532E0,3.9628288E-1,-2.2948914E0,8.0767825E-2,-9.197022E-1,1.8397852E0],"split_indices":[4,11,2,11,2,0,0,2,2,2,11,0,2,0,0,13,11,3,3,0,0,11,2,11,13,0,1,3,0,0,0,0,0,0,0,0,0,0,0,0,0],"split_type":[0,0,0,0,0,0,0,0,0,0,0,0,0,0,0,0,0,0,0,0,0,0,0,0,0,0,0,0,0,0,0,0,0,0,0,0,0,0,0,0,0],"sum_hessian":[8E1,7.7E1,3E0,6E0,7.1E1,1E0,2E0,3E0,3E0,5.8E1,1.3E1,1E0,2E0,1E0,2E0,3E1,2.8E1,6E0,7E0,1E0,1E0,8E0,2.2E1,1.8E1,1E1,3E0,3E0,5E0,2E0,6E0,2E0,1.4E1,8E0,1.1E1,7E0,7E0,3E0,2E0,1E0,1E0,4E0],"tree_param":{"num_deleted":"0","num_feature":"14","num_nodes":"41","size_leaf_vector":"1"}},{"base_weights":[3.5052255E-1,1.3856173E0,-9.267919E0,2.6644763E-1,1.2059606E1,1.796631E0,-1.2302984E1,1.0306068E1,-1.0545919E0,1.7160645E0,7.5836916E0,-1.8291178E1,-9.717133E-1,2.1743246E1,2.8698018E0,3.7682705E0,-3.8718033E0,-1.8103638E0,2.3732667E0,-1.1374695E0,-6.5581584E0,6.9678956E-1,9.087671E0,1.8512696E0,-2.488261E0,-4.196845E0,9.188477E0,5.3054106E-1,-1.17710285E1,-9.1630864E-1,2.8824463E-1,-9.4280094E-1,-1.7691651E-1,-2.5528178E0,2.610669E0,-2.8769655E0,3.935208E0,1.3073086E0,-2.5875802E0,-9.375811E0,-1.0850071E0],"categories":[],"categories_nodes":[],"categories_segments":[],"categories_sizes":[],"default_left":[0,0,0,0,0,0,0,0,0,0,0,0,0,0,0,0,0,0,0,0,0,0,0,0,0,0,0,0,0,0,0,0,0,0,0,0,0,0,0,0,0],"id":27,"left_children":[1,3,5,7,9,-1,11,13,15,17,-1,19,-1,21,23,25,27,29,-1,-1,-1,-1,-1,-1,31,33,35,37,39,-1,-1,-1,-1,-1,-1,-1,-1,-1,-1,-1,-1],"loss_changes":[8.192776E2,8.80791E2,4.4412E2,9.1273474E2,9.137649E2,0E0,3.2069043E2,6.180003E2,8.433983E2,1.235496E2,0E0,1.24131226E2,0E0,4.2772217E2,1.2147969E2,1.0315317E3,1.3624744E3,1.6724045E1,0E0,0E0,0E0,0E0,0E0,0E0,1.8739605E0,6.3032947E2,1.158686E3,9.4864417E2,2.1110107E3,0E0,0E0,0E0,0E0,0E0,0E0,0E0,0E0,0E0,0E0,0E0,0E0],"parents":[2147483647,0,0,1,1,2,2,3,3,4,4,6,6,7,7,8,8,9,9,11,11,13,13,14,14,15,15,16,16,17,17,24,24,25,25,26,26,27,27,28,28],"right_children":[2,4,6,8,10,-1,12,14,16,18,-1,20,-1,22,24,26,28,30,-1,-1,-1,-1,-1,-1,32,34,36,38,40,-1,-1,-1,-1,-1,-1,-1,-1,-1,-1,-1,-1],"split_conditions":[9.4E1,8.7E1,9.724293E1,9.961493E1,5E0,1.796631E0,4E0,3.7824518E2,1.1E1,6.5917645E2,7.5836916E0,2.3774182E2,-9.717133E-1,5E0,2E0,4.9030536E2,6.3606104E2,3E1,2.3732667E0,-1.1374695E0,-6.5581584E0,6.9678956E-1,9.087671E0,1.8512696E0,2.1E1,8E0,4E0,6.7258234E2,7.2416766E2,-9.1630864E-1,2.8824463E-1,-9.4280094E-1,-1.7691651E-1,-2.5528178E0,2.610669E0,-2.8769655E0,3.935208E0,1.3073086E0,-2.5875802E0,-9.375811E0,-1.0850071E0],"split_indices":[4,4,12,11,3,0,3,13,2,13,0,12,0,2,3,11,11,2,0,0,0,0,0,0,2,2,4,13,11,0,0,0,0,0,0,0,0,0,0,0,0],"split_type":[0,0,0,0,0,0,0,0,0,0,0,0,0,0,0,0,0,0,0,0,0,0,0,0,0,0,0,0,0,0,0,0,0,0,0,0,0,0,0,0,0],"sum_hessian":[8E1,7.3E1,7E0,6.7E1,6E0,1E0,6E0,7E0,6E1,4E0,2E0,3E0,3E0,2E0,5E0,2.2E1,3.8E1,3E0,1E0,1E0,2E0,1E0,1E0,3E0,2E0,9E0,1.3E1,2.5E1,1.3E1,2E0,1E0,1E0,1E0,7E0,2E0,2E0,1.1E1,1.8E1,7E0,3E0,1E1],"tree_param":{"num_deleted":"0","num_feature":"14","num_nodes":"41","size_leaf_vector":"1"}},{"base_weights":[2.7435726E-1,-9.794626E0,9.2462426E-1,-5.633439E0,-2.8542175E0,1.8566791E0,-7.3464336E0,-1.0567231E0,-1.27446E-1,5.711018E0,-4.1153175E-1,1.5270997E0,-9.850305E0,-1.0337881E0,1.3666107E1,-1.0924838E1,2.5202627E0,-1.4727749E1,-7.530854E-1,2.6192627E0,-1.1734493E1,1.9332718E1,1.8663086E0,-1.477441E1,3.5581973E0,7.5670075E0,-3.565335E0,-9.6685183E-1,-5.246532E0,2.1988456E0,-9.9376225E-1,-5.201488E0,7.615357E-1,2.4099367E0,6.5281196E0,2.511255E0,-1.5781007E0,-1.6818494E0,-6.2963324E0,-2.540812E0,3.6316316E0,-3.248011E0,1.7871126E0],"categories":[],"categories_nodes":[],"categories_segments":[],"categories_sizes":[],"default_left":[0,0,0,0,0,0,0,0,0,0,0,0,0,0,0,0,0,0,0,0,0,0,0,0,0,0,0,0,0,0,0,0,0,0,0,0,0,0,0,0,0,0,0],"id":28,"left_children":[1,3,5,-1,7,9,11,-1,-1,13,15,-1,17,19,21,23,25,27,-1,29,31,33,35,37,-1,39,41,-1,-1,-1,-1,-1,-1,-1,-1,-1,-1,-1,-1,-1,-1,-1,-1],"loss_changes":[5.3940607E2,2.5814908E2,6.0723914E2,0E0,4.99683E0,6.14322E2,2.9926175E2,0E0,0E0,1.4091719E3,1.4145618E3,0E0,2.1363293E2,6.17089E2,7.6629736E2,1.0523783E3,1.1326274E3,7.068347E1,0E0,3.595606E2,3.6394324E2,4.465039E1,2.7581122E2,3.9503003E2,0E0,1.5581256E3,1.2399684E3,0E0,0E0,0E0,0E0,0E0,0E0,0E0,0E0,0E0,0E0,0E0,0E0,0E0,0E0,0E0,0E0],"parents":[2147483647,0,0,1,1,2,2,4,4,5,5,6,6,9,9,10,10,12,12,13,13,14,14,15,15,16,16,17,17,19,19,20,20,21,21,22,22,23,23,25,25,26,26],"right_children":[2,4,6,-1,8,10,12,-1,-1,14,16,-1,18,20,22,24,26,28,-1,30,32,34,36,38,-1,40,42,-1,-1,-1,-1,-1,-1,-1,-1,-1,-1,-1,-1,-1,-1,-1,-1],"split_conditions":[7.086978E1,5E0,9.4E1,-5.633439E0,1.8E1,1.1E1,9.724293E1,-1.0567231E0,-1.27446E-1,4.1E1,1.6E1,1.5270997E0,4E0,6E0,7.963915E2,6E0,5.5E1,2.3774182E2,-7.530854E-1,6.803487E2,8E0,2E0,6.3E1,1.3E1,3.5581973E0,2.7165277E2,8.2E1,-9.6685183E-1,-5.246532E0,2.1988456E0,-9.9376225E-1,-5.201488E0,7.615357E-1,2.4099367E0,6.5281196E0,2.511255E0,-1.5781007E0,-1.6818494E0,-6.2963324E0,-2.540812E0,3.6316316E0,-3.248011E0,1.7871126E0],"split_indices":[12,2,4,0,2,2,12,0,0,4,2,0,3,3,11,3,4,12,0,13,2,3,4,2,0,12,4,0,0,0,0,0,0,0,0,0,0,0,0,0,0,0,0],"split_type":[0,0,0,0,0,0,0,0,0,0,0,0,0,0,0,0,0,0,0,0,0,0,0,0,0,0,0,0,0,0,0,0,0,0,0,0,0,0,0,0,0,0,0],"sum_hessian":[8E1,4E0,7.6E1,1E0,3E0,6.9E1,7E0,2E0,1E0,2.5E1,4.4E1,1E0,6E0,1.4E1,1.1E1,9E0,3.5E1,3E0,3E0,1.1E1,3E0,7E0,4E0,8E0,1E0,1.9E1,1.6E1,1E0,2E0,6E0,5E0,2E0,1E0,2E0,5E0,2E0,2E0,4E0,4E0,4E0,1.5E1,9E0,7E0],"tree_param":{"num_deleted":"0","num_feature":"14","num_nodes":"43","size_leaf_vector":"1"}},{"base_weights":[6.3523725E-2,9.616028E0,-5.575937E-1,5.3848267E-2,7.1797123E0,-1.5895609E0,4.645134E0,-4.2025453E-1,3.01709E-1,6.719452E0,-2.7082255E0,-5.708767E0,1.1829918E1,2.0351155E0,4.1544924E0,7.607324E0,-3.6132166E0,2.3269348E0,-4.3560343E0,-5.7795615E0,1.8663004E1,1.4219239E0,5.462402E-1,-2.7889812E0,1.54678545E1,-5.4353356E0,1.0540249E0,-1.0855347E0,3.024463E0,-3.2481172E0,6.473145E-1,7.9324955E-1,6.4013824E0,3.1411743E-1,-2.1855469E-1,-1.4390992E0,1.8405762E-1,5.611487E0,1.3490479E0,-2.3048441E0,5.5518955E-1,1.8044332E0,-1.3975724E0],"categories":[],"categories_nodes":[],"categories_segments":[],"categories_sizes":[],"default_left":[0,0,0,0,0,0,0,0,0,0,0,0,0,0,0,0,0,0,0,0,0,0,0,0,0,0,0,0,0,0,0,0,0,0,0,0,0,0,0,0,0,0,0],"id":29,"left_children":[1,3,5,7,-1,9,11,-1,-1,13,15,17,19,21,-1,23,25,27,-1,29,31,-1,33,35,37,39,41,-1,-1,-1,-1,-1,-1,-1,-1,-1,-1,-1,-1,-1,-1,-1,-1],"loss_changes":[4.8595322E2,6.831886E2,4.2080017E2,6.9474306E0,0E0,6.223726E2,1.0346113E3,0E0,0E0,2.3896872E2,5.689448E2,4.586195E2,1.0704807E3,2.1572107E1,0E0,4.5174197E2,4.649596E2,2.2089603E2,0E0,1.4355179E2,2.0067505E2,0E0,3.9549007E0,2.343994E1,2.2429993E1,6.528451E2,4.8144092E2,0E0,0E0,0E0,0E0,0E0,0E0,0E0,0E0,0E0,0E0,0E0,0E0,0E0,0E0,0E0,0E0],"parents":[2147483647,0,0,1,1,2,2,3,3,5,5,6,6,9,9,10,10,11,11,12,12,13,13,15,15,16,16,17,17,19,19,20,20,22,22,23,23,24,24,25,25,26,26],"right_children":[2,4,6,8,-1,10,12,-1,-1,14,16,18,20,22,-1,24,26,28,-1,30,32,-1,34,36,38,40,42,-1,-1,-1,-1,-1,-1,-1,-1,-1,-1,-1,-1,-1,-1,-1,-1],"split_conditions":[3.3304626E1,3.3074593E1,6E0,1.1570323E2,7.1797123E0,4E0,4.24089E2,-4.2025453E-1,3.01709E-1,3E0,9E0,2.4942004E2,1.2E1,2E0,4.1544924E0,7E0,8.1305383E2,1.3105524E2,-4.3560343E0,4E0,9.6803955E1,1.4219239E0,4E0,5E0,8E0,2.6E1,8.5772266E2,-1.0855347E0,3.024463E0,-3.2481172E0,6.473145E-1,7.9324955E-1,6.4013824E0,3.1411743E-1,-2.1855469E-1,-1.4390992E0,1.8405762E-1,5.611487E0,1.3490479E0,-2.3048441E0,5.5518955E-1,1.8044332E0,-1.3975724E0],"split_indices":[11,11,3,12,0,2,11,0,0,2,4,11,4,2,0,2,13,11,0,2,13,0,1,2,2,2,11,0,0,0,0,0,0,0,0,0,0,0,0,0,0,0,0],"split_type":[0,0,0,0,0,0,0,0,0,0,0,0,0,0,0,0,0,0,0,0,0,0,0,0,0,0,0,0,0,0,0,0,0,0,0,0,0,0,0,0,0,0,0],"sum_hessian":[8E1,4E0,7.6E1,3E0,1E0,6.4E1,1.2E1,1E0,2E0,7E0,5.7E1,5E0,7E0,5E0,2E0,4E0,5.3E1,3E0,2E0,2E0,5E0,1E0,4E0,2E0,2E0,3.8E1,1.5E1,2E0,1E0,1E0,1E0,1E0,4E0,3E0,1E0,1E0,1E0,1E0,1E0,2.9E1,9E0,8E0,7E0],"tree_param":{"num_deleted":"0","num_feature":"14","num_nodes":"43","size_leaf_vector":"1"}},{"base_weights":[2.8240985E-1,-8.987358E0,7.541619E-1,-4.4426975E0,-2.110484E0,7.9443855E0,-6.662613E-2,-7.581116E-1,-1.9160615E-1,-5.398178E-1,1.3142871E1,1.0774658E1,-7.0336896E-1,4.68219E-1,-5.2807313E-1,-1.8577881E-1,5.0214663E0,8.045247E-1,6.102759E0,-8.616467E0,-7.4168E-2,7.0458986E-2,2.9157716E-1,-4.9190736E0,2.0361328E0,-5.521799E0,9.1765887E-1,1.5644532E-1,7.598145E-1,1.0793824E0,-4.6083384E0,5.059871E-1,-2.132794E0],"categories":[],"categories_nodes":[],"categories_segments":[],"categories_sizes":[],"default_left":[0,0,0,0,0,0,0,0,0,0,0,0,0,0,0,0,0,0,0,0,0,0,0,0,0,0,0,0,0,0,0,0,0],"id":30,"left_children":[1,3,5,-1,7,9,11,-1,-1,13,15,17,19,-1,-1,-1,-1,21,-1,23,25,-1,-1,-1,27,29,31,-1,-1,-1,-1,-1,-1],"loss_changes":[3.6099353E2,1.288844E2,4.60858E2,0E0,2.2526455E-1,3.5993478E2,4.9769934E2,0E0,0E0,1.3001516E1,2.577638E2,3.6520575E2,3.379281E2,0E0,0E0,0E0,0E0,5.7813287E-2,0E0,4.477961E2,3.5086597E2,0E0,0E0,0E0,9.356699E-1,9.5258954E2,3.514759E2,0E0,0E0,0E0,0E0,0E0,0E0],"parents":[2147483647,0,0,1,1,2,2,4,4,5,5,6,6,9,9,10,10,11,11,12,12,17,17,19,19,20,20,24,24,25,25,26,26],"right_children":[2,4,6,-1,8,10,12,-1,-1,14,16,18,20,-1,-1,-1,-1,22,-1,24,26,-1,-1,-1,28,30,32,-1,-1,-1,-1,-1,-1],"split_conditions":[4.8690296E1,5E0,1.3128932E2,-4.4426975E0,7E0,3E0,3.3304626E1,-7.581116E-1,-1.9160615E-1,2E0,3E0,3.3074593E1,2.277595E2,4.68219E-1,-5.2807313E-1,-1.8577881E-1,5.0214663E0,9E0,6.102759E0,2E0,1.3346147E2,7.0458986E-2,2.9157716E-1,-4.9190736E0,2E0,2E0,9.8058014E2,1.5644532E-1,7.598145E-1,1.0793824E0,-4.6083384E0,5.059871E-1,-2.132794E0],"split_indices":[12,2,12,0,2,1,11,0,0,1,2,11,12,0,0,0,0,2,0,3,13,0,0,0,1,1,13,0,0,0,0,0,0],"split_type":[0,0,0,0,0,0,0,0,0,0,0,0,0,0,0,0,0,0,0,0,0,0,0,0,0,0,0,0,0,0,0,0,0],"sum_hessian":[8E1,3E0,7.7E1,1E0,2E0,7E0,7E1,1E0,1E0,3E0,4E0,3E0,6.7E1,1E0,2E0,1E0,3E0,2E0,1E0,4E0,6.3E1,1E0,1E0,2E0,2E0,9E0,5.4E1,1E0,1E0,5E0,4E0,5E1,4E0],"tree_param":{"num_deleted":"0","num_feature":"14","num_nodes":"33","size_leaf_vector":"1"}},{"base_weights":[1.5681554E-1,1.8958857E0,-1.7646416E0,-2.98902E-1,1.3226066E1,-5.178136E0,5.845477E-1,1.3298742E0,-6.3694496E0,6.2573915E0,2.2876434E0,-1.7199318E0,-1.0655153E1,3.4090028E0,-1.4963917E0,-3.6887896E-1,1.2463989E1,-1.098653E1,9.942627E-1,-1.1342163E0,1.8829834E0,1.4112617E0,-3.1620607E0,-2.9531252E-1,-1.2392434E1,1.3315349E0,-7.342464E0,8.452777E-1,-1.0363892E1,4.7431642E-1,4.669385E0,-4.166604E0,9.331055E-2,1.4123535E0,-3.9001465E-2,6.2255864E-3,-5.1662296E-1,-3.0439017E0,3.400867E0,-4.1555705E0,-9.831849E-1,2.8375375E0,-2.9628754E0,-1.0435382E1,2.598877E-1,-1.9810071E0,7.7355325E-1,-9.625855E-2,-4.567493E0,1.2319336E-1,5.1236576E-1,-1.837935E0,2.3988648E-1,-1.1810989E0,1.5129141E0,-3.7876132E0,-1.4300783E0,2.7864993E-1,-1.6170044E-1],"categories":[],"categories_nodes":[],"categories_segments":[],"categories_sizes":[],"default_left":[0,0,0,0,0,0,0,0,0,0,0,0,0,0,0,0,0,0,0,0,0,0,0,0,0,0,0,0,0,0,0,0,0,0,0,0,0,0,0,0,0,0,0,0,0,0,0,0,0,0,0,0,0,0,0,0,0,0,0],"id":31,"left_children":[1,3,5,7,9,11,13,15,17,-1,19,21,23,-1,25,27,29,31,33,35,-1,37,-1,-1,39,41,43,45,47,-1,-1,-1,-1,49,-1,-1,-1,51,-1,-1,-1,53,-1,55,57,-1,-1,-1,-1,-1,-1,-1,-1,-1,-1,-1,-1,-1,-1],"loss_changes":[2.7401102E2,1.0732489E3,3.157657E2,3.7431042E2,5.3665137E2,2.8472415E2,5.5532446E2,5.720211E2,2.8291425E2,0E0,6.171779E1,3.1867267E2,8.860632E1,0E0,3.5695425E2,3.3641916E2,1.1036713E2,1.6825604E2,2.063797E0,2.0726154E0,0E0,4.3246225E2,0E0,0E0,2.111969E1,2.8120856E2,1.6730618E2,3.3978232E2,1.4157492E2,0E0,0E0,0E0,0E0,1.8677759E-1,0E0,0E0,0E0,8.783375E1,0E0,0E0,0E0,2.290326E2,0E0,1.8852539E0,2.1038818E0,0E0,0E0,0E0,0E0,0E0,0E0,0E0,0E0,0E0,0E0,0E0,0E0,0E0,0E0],"parents":[2147483647,0,0,1,1,2,2,3,3,4,4,5,5,6,6,7,7,8,8,10,10,11,11,12,12,14,14,15,15,16,16,17,17,18,18,19,19,21,21,24,24,25,25,26,26,27,27,28,28,33,33,37,37,41,41,43,43,44,44],"right_children":[2,4,6,8,10,12,14,16,18,-1,20,22,24,-1,26,28,30,32,34,36,-1,38,-1,-1,40,42,44,46,48,-1,-1,-1,-1,50,-1,-1,-1,52,-1,-1,-1,54,-1,56,58,-1,-1,-1,-1,-1,-1,-1,-1,-1,-1,-1,-1,-1,-1],"split_conditions":[5.199524E2,4.4203564E2,6.964824E2,3.7429617E2,4.518217E2,2.4E1,7.105284E2,6E0,5.7575116E2,6.2573915E0,3E0,6.7195715E2,2E0,3.4090028E0,6.3606104E2,3.42611E2,2E0,9E0,2.5E1,2E0,1.8829834E0,1.3E1,-3.1620607E0,-2.9531252E-1,6E0,6E0,8.7923474E2,2E0,3E0,4.7431642E-1,4.669385E0,-4.166604E0,9.331055E-2,3E0,-3.9001465E-2,6.2255864E-3,-5.1662296E-1,5.4367804E2,3.400867E0,-4.1555705E0,-9.831849E-1,7.5059503E2,-2.9628754E0,3.9725674E2,2E0,-1.9810071E0,7.7355325E-1,-9.625855E-2,-4.567493E0,1.2319336E-1,5.1236576E-1,-1.837935E0,2.3988648E-1,-1.1810989E0,1.5129141E0,-3.7876132E0,-1.4300783E0,2.7864993E-1,-1.6170044E-1],"split_indices":[12,12,12,12,12,2,12,3,11,0,1,12,3,0,11,12,1,2,2,1,0,2,0,0,3,3,12,3,1,0,0,0,0,2,0,0,0,12,0,0,0,12,0,13,1,0,0,0,0,0,0,0,0,0,0,0,0,0,0],"split_type":[0,0,0,0,0,0,0,0,0,0,0,0,0,0,0,0,0,0,0,0,0,0,0,0,0,0,0,0,0,0,0,0,0,0,0,0,0,0,0,0,0,0,0,0,0,0,0,0,0,0,0,0,0,0,0,0,0,0,0],"sum_hessian":[8E1,4.2E1,3.8E1,3.6E1,6E0,1.5E1,2.3E1,2.9E1,7E0,3E0,3E0,1E1,5E0,3E0,2E1,2.6E1,3E0,4E0,3E0,2E0,1E0,8E0,2E0,1E0,4E0,1.4E1,6E0,2.4E1,2E0,1E0,2E0,3E0,1E0,2E0,1E0,1E0,1E0,6E0,2E0,3E0,1E0,1.3E1,1E0,4E0,2E0,4E0,2E1,1E0,1E0,1E0,1E0,3E0,3E0,3E0,1E1,2E0,2E0,1E0,1E0],"tree_param":{"num_deleted":"0","num_feature":"14","num_nodes":"59","size_leaf_vector":"1"}},{"base_weights":[1.4846731E-2,-8.219433E0,4.3692714E-1,-3.8923256E0,-6.9288945E-1,2.334267E0,-1.5202657E0,6.156656E-1,1.0348292E1,-7.1511283E0,-4.818704E-1,2.2251146E0,-4.8931828E0,4.8494935E0,1.9445343E0,-8.9187014E-1,-2.5491052E0,-4.0492887E0,2.5476332E0,6.4696155E0,-2.178323E0,-8.505216E0,8.451538E-1,-9.64091E-1,1.6005616E0,-1.3275452E0,-8.364271E0,2.6419556E0,8.236847E-1,5.097809E-2,2.9851685E0,9.8095095E-1,-2.4280808E0,-3.2291167E0,7.9321295E-2,3.6015627E-1,-3.314209E-2,5.2917483E-3,-4.3913272E-1,3.5644838E-1,-2.5296447E0,-2.51001E-1,-2.9107373E0,9.691544E-1,-1.5352333E0],"categories":[],"categories_nodes":[],"categories_segments":[],"categories_sizes":[],"default_left":[0,0,0,0,0,0,0,0,0,0,0,0,0,0,0,0,0,0,0,0,0,0,0,0,0,0,0,0,0,0,0,0,0,0,0,0,0,0,0,0,0,0,0,0,0],"id":32,"left_children":[1,3,5,-1,-1,7,9,11,13,15,17,19,21,-1,23,-1,-1,25,27,29,31,33,35,37,-1,39,41,-1,43,-1,-1,-1,-1,-1,-1,-1,-1,-1,-1,-1,-1,-1,-1,-1,-1],"loss_changes":[2.8510907E2,8.243799E1,2.9319858E2,0E0,0E0,5.445456E2,2.2458948E2,3.1233905E2,3.1074078E2,8.479767E0,3.7777136E2,5.187335E2,1.7300471E2,0E0,4.4592384E1,0E0,0E0,1.7680447E2,1.9775613E2,3.0531342E2,4.7764807E2,1.018772E2,1.49102E0,1.4974864E0,0E0,2.0662283E2,5.2322205E1,0E0,2.4532054E2,0E0,0E0,0E0,0E0,0E0,0E0,0E0,0E0,0E0,0E0,0E0,0E0,0E0,0E0,0E0,0E0],"parents":[2147483647,0,0,1,1,2,2,5,5,6,6,7,7,8,8,9,9,10,10,11,11,12,12,14,14,17,17,18,18,19,19,20,20,21,21,22,22,23,23,25,25,26,26,28,28],"right_children":[2,4,6,-1,-1,8,10,12,14,16,18,20,22,-1,24,-1,-1,26,28,30,32,34,36,38,-1,40,42,-1,44,-1,-1,-1,-1,-1,-1,-1,-1,-1,-1,-1,-1,-1,-1,-1,-1],"split_conditions":[4.8690296E1,5E0,5.199524E2,-3.8923256E0,-6.9288945E-1,4.4203564E2,1.6E1,3.7429617E2,4.518217E2,3.4851938E2,6.964824E2,5.1730853E2,5.7575116E2,4.8494935E0,3E0,-8.9187014E-1,-2.5491052E0,2.4E1,7.105284E2,2.3342026E2,1.2E1,9E0,2.5E1,2E0,1.6005616E0,6.7195715E2,2E0,2.6419556E0,6.9E1,5.097809E-2,2.9851685E0,9.8095095E-1,-2.4280808E0,-3.2291167E0,7.9321295E-2,3.6015627E-1,-3.314209E-2,5.2917483E-3,-4.3913272E-1,3.5644838E-1,-2.5296447E0,-2.51001E-1,-2.9107373E0,9.691544E-1,-1.5352333E0],"split_indices":[12,2,12,0,0,12,4,12,12,11,12,11,11,0,1,0,0,2,12,11,2,2,2,1,0,12,3,0,4,0,0,0,0,0,0,0,0,0,0,0,0,0,0,0,0],"split_type":[0,0,0,0,0,0,0,0,0,0,0,0,0,0,0,0,0,0,0,0,0,0,0,0,0,0,0,0,0,0,0,0,0,0,0,0,0,0,0,0,0,0,0,0,0],"sum_hessian":[8E1,3E0,7.7E1,1E0,2E0,3.9E1,3.8E1,3.3E1,6E0,5E0,3.3E1,2.6E1,7E0,3E0,3E0,2E0,3E0,1.5E1,1.8E1,1.3E1,1.3E1,4E0,3E0,2E0,1E0,1E1,5E0,3E0,1.5E1,5E0,8E0,7E0,6E0,3E0,1E0,2E0,1E0,1E0,1E0,8E0,2E0,1E0,4E0,1.1E1,4E0],"tree_param":{"num_deleted":"0","num_feature":"14","num_nodes":"45","size_leaf_vector":"1"}},{"base_weights":[-6.990774E-2,-6.15907E0,3.2640028E-1,-3.3084779E0,-2.1847076E0,6.313398E0,-2.684643E-1,-7.5724185E-1,-1.7496186E-1,1.1342773E1,-2.9432678E-1,-5.893331E0,2.4695486E-1,4.0438967E0,7.3981935E-1,6.461609E-1,-5.4850465E-1,2.0300293E-1,-8.992249E0,2.303678E0,-1.2359991E0,-4.3082887E-1,5.221802E-1,-3.0534427E0,-8.151856E-1,3.5365695E-1,8.103219E0,-5.579264E0,-4.3318766E-1,6.546141E-1,-2.5258832E0,3.7583315E0,4.958588E-1,-8.5469973E-1,-2.2079592E0,-9.5037836E-1,5.677653E-1],"categories":[],"categories_nodes":[],"categories_segments":[],"categories_sizes":[],"default_left":[0,0,0,0,0,0,0,0,0,0,0,0,0,0,0,0,0,0,0,0,0,0,0,0,0,0,0,0,0,0,0,0,0,0,0,0,0],"id":33,"left_children":[1,3,5,-1,7,9,11,-1,-1,13,15,17,19,-1,-1,-1,-1,21,23,25,27,-1,-1,-1,-1,29,31,33,35,-1,-1,-1,-1,-1,-1,-1,-1],"loss_changes":[1.974782E2,7.266609E1,2.759268E2,0E0,7.0231056E-1,2.3596756E2,2.0729604E2,0E0,0E0,4.2632263E1,1.8960373E1,1.1517766E2,2.0414906E2,0E0,0E0,0E0,0E0,1.0060495E1,2.1087952E0,3.137926E2,1.3356924E2,0E0,0E0,0E0,0E0,3.7127298E2,1.790729E2,8.20079E0,2.2224533E2,0E0,0E0,0E0,0E0,0E0,0E0,0E0,0E0],"parents":[2147483647,0,0,1,1,2,2,4,4,5,5,6,6,9,9,10,10,11,11,12,12,17,17,18,18,19,19,20,20,25,25,26,26,27,27,28,28],"right_children":[2,4,6,-1,8,10,12,-1,-1,14,16,18,20,-1,-1,-1,-1,22,24,26,28,-1,-1,-1,-1,30,32,34,36,-1,-1,-1,-1,-1,-1,-1,-1],"split_conditions":[7.086978E1,5E0,1.3128932E2,-3.3084779E0,1.8E1,3E0,2.3774182E2,-7.5724185E-1,-1.7496186E-1,4E0,2E0,4.9030536E2,5.199524E2,4.0438967E0,7.3981935E-1,6.461609E-1,-5.4850465E-1,2E0,4E0,4.4203564E2,1.6E1,-4.3082887E-1,5.221802E-1,-3.0534427E0,-8.151856E-1,7.2E1,4.518217E2,1.3E1,6.964824E2,6.546141E-1,-2.5258832E0,3.7583315E0,4.958588E-1,-8.5469973E-1,-2.2079592E0,-9.5037836E-1,5.677653E-1],"split_indices":[12,2,12,0,2,3,12,0,0,1,1,11,12,0,0,0,0,1,1,12,4,0,0,0,0,4,12,2,12,0,0,0,0,0,0,0,0],"split_type":[0,0,0,0,0,0,0,0,0,0,0,0,0,0,0,0,0,0,0,0,0,0,0,0,0,0,0,0,0,0,0,0,0,0,0,0,0],"sum_hessian":[8E1,4E0,7.6E1,1E0,3E0,6E0,7E1,2E0,1E0,3E0,3E0,5E0,6.5E1,2E0,1E0,1E0,2E0,2E0,3E0,2.7E1,3.8E1,1E0,1E0,2E0,1E0,2.1E1,6E0,5E0,3.3E1,1.8E1,3E0,3E0,3E0,3E0,2E0,1.5E1,1.8E1],"tree_param":{"num_deleted":"0","num_feature":"14","num_nodes":"37","size_leaf_vector":"1"}},{"base_weights":[-1.0079581E-1,-5.839752E0,1.948019E-1,-2.8122072E0,-4.610962E-1,-1.3087084E0,1.3863487E0,1.1809953E0,-2.8335786E0,-4.034433E0,2.8955336E0,2.1223238E0,-1.6584412E0,2.2901154E-1,-4.2780547E0,2.458435E0,-7.168296E0,5.3373594E0,-1.1484452E0,-1.9475708E0,3.5380492E0,2.4640503E0,-2.0849872E0,-2.5544784E0,-6.437673E0,-3.657715E-1,1.2272217E0,6.6064453E-1,-1.0432001E1,7.2822824E0,-1.0628153E0,-2.9807007E0,1.1440644E0,-6.947998E-1,-1.2634277E-1,5.5967563E-1,2.045581E0,-1.2037034E0,1.0908509E-1,5.181885E-1,-1.1522502E0,-3.0123355E0,-6.3770145E-1,4.037842E-1,-1.0649414E-1,-1.3457367E0,-3.8702638E0,4.2202672E-1,3.1077685E0,3.1323242E-1,-7.131913E-1,-7.860182E-2,2.491626E0],"categories":[],"categories_nodes":[],"categories_segments":[],"categories_sizes":[],"default_left":[0,0,0,0,0,0,0,0,0,0,0,0,0,0,0,0,0,0,0,0,0,0,0,0,0,0,0,0,0,0,0,0,0,0,0,0,0,0,0,0,0,0,0,0,0,0,0,0,0,0,0,0,0],"id":34,"left_children":[1,3,5,-1,-1,7,9,11,13,15,17,19,-1,21,23,25,27,29,31,33,35,-1,37,39,41,-1,-1,43,45,47,49,-1,51,-1,-1,-1,-1,-1,-1,-1,-1,-1,-1,-1,-1,-1,-1,-1,-1,-1,-1,-1,-1],"loss_changes":[1.3854782E2,4.642079E1,1.4155154E2,0E0,0E0,1.3622308E2,3.7164417E2,1.0014946E2,9.830417E1,2.2110033E2,3.5174387E2,8.179471E1,0E0,1.6493382E2,3.93891E1,2.8999907E1,1.8575128E2,2.8159235E2,2.933942E2,1.2741537E0,4.21454E1,0E0,3.44943E1,6.1713074E1,7.188422E1,0E0,0E0,2.5658166E0,1.5531738E1,2.927647E2,1.9099325E1,0E0,1.23008514E2,0E0,0E0,0E0,0E0,0E0,0E0,0E0,0E0,0E0,0E0,0E0,0E0,0E0,0E0,0E0,0E0,0E0,0E0,0E0,0E0],"parents":[2147483647,0,0,1,1,2,2,5,5,6,6,7,7,8,8,9,9,10,10,11,11,13,13,14,14,15,15,16,16,17,17,18,18,19,19,20,20,22,22,23,23,24,24,27,27,28,28,29,29,30,30,32,32],"right_children":[2,4,6,-1,-1,8,10,12,14,16,18,20,-1,22,24,26,28,30,32,34,36,-1,38,40,42,-1,-1,44,46,48,50,-1,52,-1,-1,-1,-1,-1,-1,-1,-1,-1,-1,-1,-1,-1,-1,-1,-1,-1,-1,-1,-1],"split_conditions":[4.8690296E1,5E0,4.7E1,-2.8122072E0,-4.610962E-1,3.27988E2,2.4739876E2,4.2E1,1.2E1,3.4169812E2,7.9E1,6.1078537E1,-1.6584412E0,5.810819E2,6.144647E2,3E0,5E0,2.2E1,8.2E1,3.4851938E2,7.1033685E2,2.4640503E0,7E0,3.044684E2,8.286569E2,-3.657715E-1,1.2272217E0,4E0,1.2E1,2E0,3.42611E2,-2.9807007E0,6E0,-6.947998E-1,-1.2634277E-1,5.5967563E-1,2.045581E0,-1.2037034E0,1.0908509E-1,5.181885E-1,-1.1522502E0,-3.0123355E0,-6.3770145E-1,4.037842E-1,-1.0649414E-1,-1.3457367E0,-3.8702638E0,4.2202672E-1,3.1077685E0,3.1323242E-1,-7.131913E-1,-7.860182E-2,2.491626E0],"split_indices":[12,2,4,0,0,13,13,4,4,12,4,13,0,13,11,1,2,2,4,11,12,0,2,12,11,0,0,2,2,3,12,0,3,0,0,0,0,0,0,0,0,0,0,0,0,0,0,0,0,0,0,0,0],"split_type":[0,0,0,0,0,0,0,0,0,0,0,0,0,0,0,0,0,0,0,0,0,0,0,0,0,0,0,0,0,0,0,0,0,0,0,0,0,0,0,0,0,0,0,0,0,0,0,0,0,0,0,0,0],"sum_hessian":[8E1,3E0,7.7E1,1E0,2E0,3.4E1,4.3E1,1.3E1,2.1E1,9E0,3.4E1,1.2E1,1E0,7E0,1.4E1,3E0,6E0,2.1E1,1.3E1,3E0,9E0,1E0,6E0,9E0,5E0,1E0,2E0,2E0,4E0,1.6E1,5E0,2E0,1.1E1,2E0,1E0,7E0,2E0,3E0,3E0,2E0,7E0,2E0,3E0,1E0,1E0,2E0,2E0,6E0,1E1,2E0,3E0,1E1,1E0],"tree_param":{"num_deleted":"0","num_feature":"14","num_nodes":"53","size_leaf_vector":"1"}},{"base_weights":[-1.6385898E-1,-5.7552046E-1,3.1933796E0,-4.1709514E0,-1.3099067E-1,-2.0717926E0,6.1712646E0,-2.581036E0,-1.2595419E0,1.8791491E0,-1.1787685E0,-7.289978E-1,-1.4957887E-1,-7.001587E-1,2.501719E0,3.6811525E-1,-1.4096742E0,-8.7507373E-1,4.476776E0,-2.6062305E0,1.2416849E0,-2.4538575E-1,4.294434E-1,7.5888366E-1,-6.029907E0,9.0289307E-1,6.900565E0,9.007263E-1,-4.3148274E0,4.560913E0,-2.2155082E0,-2.6762086E-1,3.8493922E-1,-1.5472412E-1,-2.5587342E0,6.5945435E-1,-3.3753663E-1,2.6520631E0,-7.105957E-1,-1.0936112E0,1.0109463E0,-2.1246736E0,-1.3590088E-1,1.1288453E-1,2.9092896E0,-1.1480451E0,6.8481445E-1],"categories":[],"categories_nodes":[],"categories_segments":[],"categories_sizes":[],"default_left":[0,0,0,0,0,0,0,0,0,0,0,0,0,0,0,0,0,0,0,0,0,0,0,0,0,0,0,0,0,0,0,0,0,0,0,0,0,0,0,0,0,0,0,0,0,0,0],"id":35,"left_children":[1,3,5,7,9,11,13,-1,15,17,19,-1,-1,-1,-1,21,-1,23,25,27,29,-1,-1,31,33,35,37,39,41,43,45,-1,-1,-1,-1,-1,-1,-1,-1,-1,-1,-1,-1,-1,-1,-1,-1],"loss_changes":[1.1378358E2,1.1612781E2,1.5389726E2,9.240222E1,1.4122295E2,1.0424919E0,1.300866E2,0E0,3.5318447E1,1.6846973E2,1.5526076E2,0E0,0E0,0E0,0E0,7.4769816E0,0E0,1.0564934E2,9.771756E1,1.7166177E2,2.0518335E2,0E0,0E0,9.799713E0,3.6944214E1,1.8234406E1,1.4679236E2,1.2453166E2,1.9985007E2,1.8980841E2,7.396777E1,0E0,0E0,0E0,0E0,0E0,0E0,0E0,0E0,0E0,0E0,0E0,0E0,0E0,0E0,0E0,0E0],"parents":[2147483647,0,0,1,1,2,2,3,3,4,4,5,5,6,6,8,8,9,9,10,10,15,15,17,17,18,18,19,19,20,20,23,23,24,24,25,25,26,26,27,27,28,28,29,29,30,30],"right_children":[2,4,6,8,10,12,14,-1,16,18,20,-1,-1,-1,-1,22,-1,24,26,28,30,-1,-1,32,34,36,38,40,42,44,46,-1,-1,-1,-1,-1,-1,-1,-1,-1,-1,-1,-1,-1,-1,-1,-1],"split_conditions":[2.8E1,1.3346147E2,3.9902533E2,2.32627E2,3.8033517E2,2E0,1E0,-2.581036E0,8.2076715E2,2.8399997E2,8.863047E2,-7.289978E-1,-1.4957887E-1,-7.001587E-1,2.501719E0,5.8534924E1,-1.4096742E0,2.419017E2,4.3E1,2.883985E2,9.6828644E2,-2.4538575E-1,4.294434E-1,2.3342026E2,2E0,1.6295442E2,2.2E1,5.2E1,7.2416766E2,2E0,7.4878827E2,-2.6762086E-1,3.8493922E-1,-1.5472412E-1,-2.5587342E0,6.5945435E-1,-3.3753663E-1,2.6520631E0,-7.105957E-1,-1.0936112E0,1.0109463E0,-2.1246736E0,-1.3590088E-1,1.1288453E-1,2.9092896E0,-1.1480451E0,6.8481445E-1],"split_indices":[2,13,11,11,13,1,3,0,11,13,13,0,0,0,0,13,0,13,4,11,13,0,0,11,1,11,2,4,11,1,12,0,0,0,0,0,0,0,0,0,0,0,0,0,0,0,0],"split_type":[0,0,0,0,0,0,0,0,0,0,0,0,0,0,0,0,0,0,0,0,0,0,0,0,0,0,0,0,0,0,0,0,0,0,0,0,0,0,0,0,0,0,0,0,0,0,0],"sum_hessian":[8E1,7.2E1,8E0,7E0,6.5E1,3E0,5E0,2E0,5E0,2.2E1,4.3E1,2E0,1E0,1E0,4E0,4E0,1E0,1.1E1,1.1E1,2.7E1,1.6E1,2E0,2E0,9E0,2E0,5E0,6E0,9E0,1.8E1,8E0,8E0,2E0,7E0,1E0,1E0,3E0,2E0,5E0,1E0,3E0,6E0,1E1,8E0,5E0,3E0,6E0,2E0],"tree_param":{"num_deleted":"0","num_feature":"14","num_nodes":"47","size_leaf_vector":"1"}},{"base_weights":[-1.5174566E-1,-4.1842117E0,5.6992922E-2,-2.0716736E0,-2.9256898E-1,4.7654057E-1,-1.8949777E0,-1.9632003E-1,2.9416983E0,1.2681478E0,-3.793175E0,5.187847E-1,-5.7652535E0,-1.6425935E0,4.0103383E0,1.5436524E0,-1.9569092E0,-1.03271484E-1,-4.83268E0,1.0354829E0,-2.581702E0,-1.0835775E-1,-2.5699837E0,6.147354E0,4.925944E-1,-6.621826E-1,-1.8087159E-1,8.5034184E-2,-1.3150635E-1,-4.1671145E-1,-1.5525343E0,6.1770562E-2,1.1886678E0,3.0772707E-1,-1.6631207E0,3.1365967E-1,-3.6242068E-1,1.1027832E-1,2.4038026E0,-3.0842286E-1,7.067871E-1],"categories":[],"categories_nodes":[],"categories_segments":[],"categories_sizes":[],"default_left":[0,0,0,0,0,0,0,0,0,0,0,0,0,0,0,0,0,0,0,0,0,0,0,0,0,0,0,0,0,0,0,0,0,0,0,0,0,0,0,0,0],"id":36,"left_children":[1,3,5,-1,-1,7,9,11,13,15,17,19,21,-1,23,-1,25,27,29,31,33,35,-1,37,39,-1,-1,-1,-1,-1,-1,-1,-1,-1,-1,-1,-1,-1,-1,-1,-1],"loss_changes":[6.84187E1,2.819674E1,6.4780716E1,0E0,0E0,1.083935E2,8.886963E1,2.1007419E2,1.4788441E2,8.509753E1,3.4021973E1,7.796804E1,9.415372E1,0E0,9.469902E1,0E0,2.521038E-2,5.12999E-1,1.0661163E0,9.873096E1,8.048442E1,5.0699115E0,0E0,8.330344E1,1.942347E1,0E0,0E0,0E0,0E0,0E0,0E0,0E0,0E0,0E0,0E0,0E0,0E0,0E0,0E0,0E0,0E0],"parents":[2147483647,0,0,1,1,2,2,5,5,6,6,7,7,8,8,9,9,10,10,11,11,12,12,14,14,16,16,17,17,18,18,19,19,20,20,21,21,23,23,24,24],"right_children":[2,4,6,-1,-1,8,10,12,14,16,18,20,22,-1,24,-1,26,28,30,32,34,36,-1,38,40,-1,-1,-1,-1,-1,-1,-1,-1,-1,-1,-1,-1,-1,-1,-1,-1],"split_conditions":[4.8690296E1,5E0,9.088437E2,-2.0716736E0,-2.9256898E-1,7.2416766E2,5.199524E2,6.3606104E2,1E0,3E0,2E0,7.9E1,1.1E1,-1.6425935E0,8.5772266E2,1.5436524E0,6E0,1.9E1,3E0,3E0,7E0,2E0,-2.5699837E0,1.690254E2,1.1E1,-6.621826E-1,-1.8087159E-1,8.5034184E-2,-1.3150635E-1,-4.1671145E-1,-1.5525343E0,6.1770562E-2,1.1886678E0,3.0772707E-1,-1.6631207E0,3.1365967E-1,-3.6242068E-1,1.1027832E-1,2.4038026E0,-3.0842286E-1,7.067871E-1],"split_indices":[12,2,11,0,0,11,12,11,3,3,1,4,2,0,11,0,2,2,2,1,2,1,0,13,2,0,0,0,0,0,0,0,0,0,0,0,0,0,0,0,0],"split_type":[0,0,0,0,0,0,0,0,0,0,0,0,0,0,0,0,0,0,0,0,0,0,0,0,0,0,0,0,0,0,0,0,0,0,0,0,0,0,0,0,0],"sum_hessian":[8E1,3E0,7.7E1,1E0,2E0,6.4E1,1.3E1,5.1E1,1.3E1,5E0,8E0,4.6E1,5E0,1E0,1.2E1,2E0,3E0,2E0,6E0,4E1,6E0,2E0,3E0,7E0,5E0,2E0,1E0,1E0,1E0,1E0,5E0,3.2E1,8E0,3E0,3E0,1E0,1E0,2E0,5E0,3E0,2E0],"tree_param":{"num_deleted":"0","num_feature":"14","num_nodes":"41","size_leaf_vector":"1"}},{"base_weights":[-1.6959052E-1,-3.1893706E0,2.8701585E-2,-1.760923E0,-1.0518417E0,3.044983E0,-1.347285E-1,-3.5846254E-1,-9.341126E-2,4.2382812E-1,1.1912476E0,-4.1911548E-1,1.9657457E0,-3.8257027E0,-1.469504E-2,-1.7162323E0,4.0927734E0,-3.2434082E-1,-1.9111917E0,1.4088295E0,-1.5849739E0,-5.9555054E-1,-1.3641357E-1,-3.6225587E-1,1.6183008E0,-2.135254E-1,1.256836E-1,5.717326E-1,-7.638703E-1,-1.041613E0,-1.22712165E-1],"categories":[],"categories_nodes":[],"categories_segments":[],"categories_sizes":[],"default_left":[0,0,0,0,0,0,0,0,0,0,0,0,0,0,0,0,0,0,0,0,0,0,0,0,0,0,0,0,0,0,0],"id":37,"left_children":[1,3,5,-1,7,9,11,-1,-1,-1,-1,13,15,17,19,21,23,25,-1,27,29,-1,-1,-1,-1,-1,-1,-1,-1,-1,-1],"loss_changes":[4.8594223E1,2.2472832E1,3.8367485E1,0E0,5.159855E-2,4.3489838E-1,4.5027588E1,0E0,0E0,0E0,0E0,9.087155E1,7.750918E1,6.0308945E1,1.363528E2,4.543934E-1,4.790574E1,1.4500122E0,0E0,6.774701E1,6.2932747E1,0E0,0E0,0E0,0E0,0E0,0E0,0E0,0E0,0E0,0E0],"parents":[2147483647,0,0,1,1,2,2,4,4,5,5,6,6,11,11,12,12,13,13,14,14,15,15,16,16,17,17,19,19,20,20],"right_children":[2,4,6,-1,8,10,12,-1,-1,-1,-1,14,16,18,20,22,24,26,-1,28,30,-1,-1,-1,-1,-1,-1,-1,-1,-1,-1],"split_conditions":[7.086978E1,5E0,9.724293E1,-1.760923E0,1.8E1,1.6046765E2,2.8E1,-3.5846254E-1,-9.341126E-2,4.2382812E-1,1.1912476E0,1.3346147E2,3.9902533E2,